4
784 100 100 10 
-0.4146456510360832 -0.04670380537103777 0.3685344926811479 -0.09876691629364802 -0.7827597455232589 -0.0933232308096785 -0.06895053193523587 0.0463583761619599 -0.7950956124441411 -0.05538417888149671 -0.1302602976978826 0.6496105908382525 -0.0967703106959575 0.5540065685650166 -0.1082317834418284 -0.004907511461169102 0.2827576649235505 -0.03989004160990994 -0.3676009373586793 0.3315820240230242 0.2033395059884285 0.06548158870337774 -0.4354992438864476 0.04863873143367373 -0.1113356363988798 0.2690680677910479 0.1161288915663764 0.2622725627185896 0.1806806784068031 0.4246079641971554 -0.07773239840503297 -0.5531190043767955 0.1390595305413025 -0.08149845768365648 -0.1042107284475069 0.5758451568470668 0.06435217297304467 -0.4494810686696204 -0.4881510584604946 -0.04813782910036422 -0.1578867609851319 0.8892959126558888 -0.5232667550733181 0.01878649027290799 0.2417854239947764 0.195842312381511 0.407770337932475 0.3913846640169503 -0.1088408137739861 0.09204888505377384 0.4500734009813866 -0.2739420037218989 -0.3262086689668005 -0.2849258723517719 -0.3627614850986365 -0.1823039195717635 -0.09674993831804923 -0.08417641611076015 0.2023954119226596 -0.2054822278598989 0.6705341040558117 -0.2571991277834569 -0.3055288329447082 0.2001396650936354 0.7521764445590944 -0.02085261538547549 0.1499101651550385 -0.1581770016402928 -0.1082128149208609 -0.160166955365649 -0.1298622823180428 -0.04011359903672762 -0.0704807990094431 -0.04742930819794985 0.2576307259463395 0.5083416833590022 -0.1910634542470777 -0.03986212012914938 -0.446493112486429 -0.5129592396812177 -0.6288658194395416 0.6026972380884658 -0.2522408842523679 -0.4121968255228018 -0.01420946734422724 0.4676445315142339 0.1822208431116663 0.0225719299612003 -0.1458969540397493 -0.3024313107609759 -0.2722256944225495 -0.1559515597624272 -0.1491632343656427 0.2594526277155028 0.06099956662767191 -0.4280865522289338 0.3082491365657961 0.009970497080858278 -0.6707118394410057 -0.0831456840097058 
-0.4955629873695928 -0.1068168784494305 0.3414853281661469 -0.2395298077076417 -0.459854857652129 -0.1485218051167596 0.05285211152754615 -0.1306443354388618 -0.5331595535602391 -0.1007929140858865 -0.2366144156162553 0.791603654059568 -0.02782962720413292 0.4100835790617173 -0.1147522292535481 0.04251311261527443 0.2709851465933985 0.07082908533524222 -0.5237570646803317 0.2527914966680263 0.3168562118412042 0.0566746296108273 -0.3130545093270214 0.1557647119677809 -0.1217231102338651 0.161664429020126 0.04413219641113209 0.0936925027402119 0.1563827834917125 0.5185112327697184 -0.01073272573362083 -0.7898275181169736 0.1579154543234053 0.07875900106793969 -0.2579729272457248 0.6776017897123388 0.09293592796731116 -0.5400588819762602 -0.1796276299515658 0.07798903253493743 -0.3880116026260632 0.969153171589072 -0.7117575054503142 0.1613884397887054 0.3975572755971896 0.1731188028775774 0.490768144128219 0.1176796423412637 -0.05555957074850097 0.0346445567412507 0.6224406900048537 -0.2483059176122595 -0.649874627594678 -0.434599119739119 -0.5059775754344381 -0.2440302331192986 0.1664640733302984 0.003660338097467332 0.1903450249404435 -0.1645446948378431 0.4160036835083392 -0.3244815052587656 -0.3069602690581671 0.008391746851266346 1.039060549715271 -0.08024888089525246 0.127965306533971 -0.02163489184444873 0.0002625488559360139 -0.2393840615728017 -0.2036493666929367 -0.09060283218465985 -0.200744992992907 -0.2976231091238472 0.1464920164954721 0.4981521969556485 -0.5365429553566398 -0.1200375118457007 -0.4575171638957748 -0.2163139003098112 -0.5736765791001409 0.7042674383647272 -0.261959644816266 -0.4628159233398458 -0.1182813827689276 0.8509962767744783 0.07860328524135646 0.04311363207278663 0.109950819939037 -0.2257289850033988 -0.2851398283017186 -0.4028085298815638 -0.1125452080094885 0.2854814627408888 -0.1084018911895249 -0.4795150650597836 0.2264659368344323 -0.001942218534817964 -0.4410786879906268 -0.09768732720690335 
-0.5115262075235408 0.002653284393294058 0.4405519510729683 -0.1408657560009518 -0.2816831841130529 -0.08400698570182652 0.06096066609980418 -0.05456330416746725 -0.3501553587949218 -0.2780992286129358 -0.1694235686201787 0.8762727117041889 0.02571574183830987 0.4357391531535846 0.1745087318339325 0.04150600567787625 0.4487253461711632 -0.08283907112532388 -0.4042967894264392 0.286930783284445 0.4081658609619057 0.1365518216738884 -0.2092850178210113 -0.1478701831178307 0.07627254380239173 0.08617117958274427 0.06193965146307041 0.1125181627678561 0.07848134479847975 0.6163051842148706 0.1816379398125304 -0.7517690039832564 0.0837374228675138 0.04364136989195633 -0.3299578292060067 0.4719326507602093 -0.07384069932717621 -0.6680769562622849 0.07613702822563513 0.08938266482493948 -0.1760692487107473 0.8095562474911859 -0.6744581873243052 0.07786448236442893 0.4873657211161717 0.246213038933033 0.3804360927134148 -0.1084873025823441 -0.1851512605870655 0.113286852673809 0.1424746866422228 -0.4132641348561306 -0.9068756897977269 -0.1552281607008196 -0.5556091614765968 -0.3952968384877835 0.1261595059885165 -0.1579207103150821 0.3106138232082987 -0.1187374022385618 0.2171826146867898 -0.1701600337906053 -0.1396214795907583 -0.02357839481508595 1.318066338560091 -0.1208471806874663 0.1586175412498471 0.326502728242649 0.0327764221127053 -0.09587410021616635 -0.2544301706333515 0.06662059764950348 -0.3178682688166837 -0.5519492762101769 0.2887334020736925 0.3212748737732436 -0.8322548997276868 -0.2127716231794766 -0.1380588016586776 -0.0281742096373881 -0.7654939704660145 0.5403222642423736 -0.2430699081606991 -0.4978387363585225 -0.09527321732525841 0.9298962703485216 0.07345548205132581 0.05333836760841683 -0.1280653131358729 -0.1716244577002135 -0.2290462242065323 -0.4568113254022631 -0.2573033919469589 0.3998167537571236 -0.007018274699423581 -0.4372990424847313 0.155717513983722 0.02837143360873664 -0.7679351697311988 -0.1853408017465984 
-0.5435059595422679 0.2225026233412665 0.3883242127526357 -0.3105727052791605 -0.2850896029756201 -0.01151530135556621 0.1385232890906844 -0.2620284227538281 -0.4456261978644573 -0.5002002465719397 -0.08879950711512279 0.5975477434450395 -0.0569382498711337 0.5579853245425417 0.1044042431173821 0.0687810320505423 0.5448277036363938 -0.1538682093536289 -0.4733004473965549 0.394820227685622 0.4891701516021023 0.2018161398964954 0.08049677612640323 -0.5124554647169971 -0.09066047271669748 -0.0009675523374125809 0.2411238646395229 -0.1906748809546507 -0.11431074113047 0.3353368010485729 0.2998411166169377 -0.8613854071101806 -0.1340135886667308 0.01754917985489962 -0.4246239572775544 0.1369550984472707 0.1939205849086612 -0.6456691456518177 -0.02570824594376372 -0.05585939349685556 -0.3623034986710293 0.7175218731174273 -0.7611452431072091 0.1483993507881401 0.3834942813264838 0.268467554273453 0.2613100553923794 -0.2554443056223691 -0.2392746522579029 0.3496525702089872 0.03321598293501779 -0.417202922118058 -0.7857591154689596 0.0489060692427561 -0.7203155910790981 -0.7025341026537867 -0.04445664684269877 0.03174310970503001 0.351075005853887 -0.1839684774252862 0.3412783996505344 0.03255534645645124 0.1395844400204891 0.338013250986145 1.355142052892764 -0.3025257777578527 0.1975460717095195 0.5000784284886504 -0.05467990438165856 0.02120614521925476 -0.3475580405379663 -0.0168440065358552 -0.2101688277270369 -0.6483855779848915 0.2828234101816375 -0.2923667693942589 -1.251148326774044 -0.1843789280273853 -0.07081711912139035 0.5441727496774911 -0.5923900653479478 0.03285828137880599 -0.2012767695389239 -0.4890919280789141 -0.1957375119365592 0.8227148371145016 0.07050178655744281 0.02366665636393806 -0.2453577164459973 -0.1272471028877932 -0.1073251271754811 -0.5197307510704047 -0.1057462019059749 0.2980282825517298 -0.1239699376088396 -0.2808556574409207 0.2418226832924683 0.02705507867185474 -0.5115072197534286 -0.1110557415176506 
-0.3027779820907178 0.5540521623127859 0.3305902972296653 -0.3440236563465382 -0.5164723352434087 0.02261884202748458 0.3370467619427422 -0.2507794982981243 -1.15480941166787 -0.5999446091421115 -0.1827911170244118 0.466776403514559 -0.01856325643847912 0.2258452052527 -0.04819986614706141 -0.06457815081882971 0.5546684839715301 0.1020619705569993 -0.3627210464493705 0.4557787450013064 0.5979163040464051 0.2586348494149189 0.2518535583402529 -0.6862975391013756 -0.3486264727335307 -0.03990369871486511 0.3356422521311066 -0.4458224996105042 -0.1246885545058395 0.1957331820193411 0.711378006568856 -1.147207960068082 -0.234328155471492 0.134437249736441 -0.5272257950345749 -0.02867312349452092 0.3229204838285433 -0.4539651335931162 -0.1316435741694739 -0.09759456643505153 -0.7101529836233218 0.656903378048092 -1.118992576153677 0.009283478687255519 -0.02765471355186324 0.2419116805769885 0.410427453031936 0.08514035329211281 0.4166889901869504 0.4077614992416504 0.1455570054073421 -0.3568791309123563 -0.04819832205908513 0.2634928696695217 -0.7363460247835391 -0.6387703518324982 -0.3369097413266663 0.5222628432088203 0.2998649630016383 -0.5132658682422924 0.5066042793184679 0.2281405409538926 0.2851676648420378 0.1689409262205039 0.7440800101054302 -0.4225531206264015 0.397801152325569 0.2379171115349435 -0.01428560598912457 -0.1343441531451164 -0.5019327296311425 0.008661072928120675 -0.2634650640611323 -0.589998644659301 0.1287252288892594 -0.5033599064176413 -1.466982147768592 -0.03977027806720218 -0.1258384407516202 1.018834143791649 -0.4428746090583427 -0.2399268052040163 -0.188349567635212 -0.5174787923537347 -0.1662767925531372 0.3198915772323232 0.1293455018549129 0.2592825438786819 -0.0629031154571158 -0.08809780289011553 -0.0004272934575613304 -0.6319299725607854 -0.02083550657233598 0.2124918847154866 -0.1365277320123083 -0.4374947460464916 0.2263674989868789 0.03530224729980662 -0.5762940360958049 -0.06191994338417482 
-0.3788289260533543 0.4148463673394907 0.3718323791325037 -0.6245653115609607 -0.3177317841272376 0.01269358901298838 0.235801090697525 -0.2359271514622614 -1.510284992309746 -0.5711967673099859 -0.1802598502770365 0.03959114749393206 -0.1205669029570769 0.03397541624091044 -0.1042601638379709 -0.143267051086549 0.4970013136219882 0.1427544126876809 -0.2880208187390044 0.4930473126184274 0.6963240572825633 0.08068294044877573 0.25184406923377 -0.9859628508345153 -0.3302372141097389 0.01839515723099611 0.6534107397637795 -0.5196727640407063 0.07055893344084527 -0.08261883369021955 1.018257956025613 -1.539104165907731 -0.2449026982027534 0.04656731584278588 -0.4273050696855314 0.02248632280612933 0.1009170862524989 0.09264821261982983 -0.4040002328194085 -0.2160789665990217 -0.6297312103824992 0.7089960517253791 -0.9990217612700701 0.08133080182181736 -0.3540290257832356 0.06745060128075081 0.7955941438192257 0.02968904576858 1.218052963136667 0.4922413036973645 0.3635905455022162 -0.2848205945118995 0.4461778429127797 0.1636504184735623 -0.5750409801702521 -0.4226526235031819 0.01213554460644986 1.086423630499596 0.1502957154594134 -0.5307032129377478 0.5740055318964561 0.3618242388281497 -0.075121549763686 0.01139348774399835 0.6635678413719426 -0.3517551214508125 0.4254255975911471 -0.2729759528348608 0.1081348393502136 -0.6330123039546577 -0.5411546508586856 -0.1450592272167701 -0.3867925862470903 -0.3633365272163622 0.1055292724055216 0.1056096882326355 -1.606141044717819 0.1483032598570968 -0.5784578553999616 0.9213169087714917 0.2169194250305904 -0.3670418537896594 -0.3896232313206809 -0.5373785045362832 -0.3879215769129282 0.1140891301814922 0.1224671694387203 0.5395518389743984 0.2530066824507951 -0.1728853657129101 -0.1088448355401327 -0.8398021491639603 0.07831978201988737 0.1347749407724863 -0.3586588386184684 -0.4909060341662955 0.1250301577999918 -0.1256775944119991 -0.2951709710798053 -0.02971846165904058 
-0.7776912737667463 0.6077870457708296 0.4098428864302671 -0.3954305831897275 -0.2009569421225726 0.04187322577569096 0.3826158791015254 -0.1769515388847561 -1.470694111169808 -0.6577798617642142 -0.1850071332303703 0.5789477004383091 -0.3683335884340637 0.01808415450426622 0.3405517209704646 -0.2286341945898752 0.1568030732406786 0.3609652802786964 0.05955601882370574 0.6309478118868014 0.6098334750996911 -0.1092229119375825 0.3727147672281473 -1.170126170000147 -0.2878997321959437 -0.06291844108634656 0.6171514140353354 -0.441255768219814 0.2771635087740599 -0.1149524075412915 1.404279502912376 -1.523824353083863 -0.2037803473356303 0.2354261187604595 -0.5047717688690136 0.2859318620672769 0.09414220441884774 0.3404374813277932 -0.1524857132000399 0.1180165490883889 -0.787078786160071 0.6357397095576486 -0.8755527735730196 -0.06172759688863085 -0.442145231932052 -0.02878179179556048 1.204076440220698 -0.126790392186672 1.389588665805867 0.4149148217298779 0.4515205515644174 -0.2423080834185712 1.018828140320759 0.02420591806871963 -0.4645461760679262 -0.6332596073493865 0.7715683118264209 0.9990663425235182 0.002083075154210339 -0.388464899685166 0.1601721664529041 0.4619517304660125 -0.4475327068315262 -0.6576486854252679 0.9610357772452415 -0.09140918000354109 0.4401288970358996 -0.559364790971849 0.119869666251514 -0.6632500618558985 -0.3274395216641381 -0.06768941028872752 -0.8169195047483897 -0.06202140140601795 0.052963437251317 0.347295421041917 -1.657448793341005 0.2126828078554949 -0.5442206818592975 0.5751861077345131 1.04485570742117 -0.07101225377894886 -0.2516197255529173 -0.683273321947528 -0.4580491532652844 -0.05648969310187867 0.2780080711208169 0.6985295155537335 0.4131609993384663 -0.4116394995916401 -0.2701801082409314 -1.00422628464173 0.5778625860836526 -0.3761851405873458 -0.2264555634362457 -1.004268230074261 -0.003509916801430491 0.003247020893758352 -0.4569716574686544 -0.01370911517520581 
-1.071852317708851 1.031958455047667 0.4506072862154211 -0.06220569468103252 -0.3389160698508184 0.4324750289961011 0.3093509230146369 -0.1180665570116168 -0.9418552998145155 -0.5003935000518765 -0.3187626065926374 0.8482403331042029 -0.784998012768526 0.1105784845025821 0.2829605250716485 -0.2064182239746 0.06760053556207879 0.3104390986926762 -0.06429199245775268 0.3595068458809192 0.1942378559491584 -0.07110439697587423 0.3905873077338391 -0.8641770539968879 -0.5882842274374006 -0.09414503969522237 0.7288745782680319 -0.2063031856960602 0.7008209330702984 -0.2563532223981232 1.593490949410705 -1.467409459426893 -0.3784513404406873 0.4594983903358424 -0.6266994593571713 0.5894303161710982 -0.01125816049259852 0.1686843294671398 0.04888234234253694 0.2489088426677531 -1.005949750688975 0.4250218455419592 -0.8949660711806925 0.0854393987457884 -0.3803531861356078 -0.1670702815512666 1.099002432418859 -0.3539040291583579 0.8821629127656289 0.2912821036629685 0.1798752677883016 -0.3019612871037751 0.7684204672646485 0.188038583559434 -0.6226419645020973 -0.6086622301452641 0.9288729085866709 0.5260786866746568 -0.08314935793601803 -0.3886375048635602 0.4718558252318294 0.4975484788965045 -0.7287942879688515 -0.6971266477199635 0.5653086759550258 0.07555991546353524 0.4495232434149722 -0.9146828542639576 0.1560367729595315 -0.5087157077576303 -0.04641129150908924 0.04057696053786125 -1.085220032809552 0.6274137268368768 0.291891067313652 0.2087982734135193 -1.691320722442018 0.2480229924924005 -0.6182255565133271 0.01209825137860906 1.705024919958281 0.3618842907501745 -0.4268274755404531 -0.7433238728874377 -0.4278988740864151 -0.3135707400515695 0.2174263722515307 0.8291975545694094 0.2107665422132896 -0.1481125115985945 -0.09355872557257645 -1.231349511529754 0.6887471577678036 -0.6745789305800283 -0.1786910594182807 -1.445868728742745 -0.04534155471508727 0.1961893660605326 -0.4837650166791488 0.02823586782333574 
-0.9791619917661146 0.9780511692688973 0.03120623421317646 0.1824029405669878 -0.6948232348466795 0.6459677491418184 0.6687910203766368 -0.1417424185190313 -0.3342320882017071 -0.4470533801126038 -0.379730423808555 0.8017066906257063 -0.6789737362163131 -0.02734139112100642 0.1874861139385515 -0.2229009198016252 -0.06756176180188203 0.1112029582353149 -0.5727370852422049 -0.3512750382484824 -0.07179064694662682 -0.1387605037147633 0.1404270821624229 -0.2547923644065536 -0.4382515394293447 0.06738561249935385 0.6471712893019873 0.1156918382495691 0.7327370384478515 0.05632533171478204 1.630167360199769 -1.267734895112906 -0.3359094910751523 0.6544969925304999 -0.2400976397211461 0.5498620771386947 0.1249569116759427 0.4512843241162084 0.3238826894789067 0.2704631821289502 -0.5732596809190215 0.1325428783464115 -0.9718871263406915 0.2534370844241137 -0.5393815673145017 -0.4098673651662972 0.7627659631540884 -0.4958766487754811 0.2088631858850299 0.6405413745364328 -0.01638893136860989 -1.043048896105125 0.1781636040473682 0.3683557448116112 -0.4499783678832307 -0.8359523148620829 1.146861531859274 0.225300448289808 0.178272656862647 -0.4898484282345499 0.406596218956407 0.6204433049593439 -0.7886908092642431 -0.5180456397088176 0.4066418456515748 0.2807995868323485 0.5171011913572456 -0.6686589916067037 0.1589418754369825 -0.2811317510212771 -0.2889198215711192 -0.0008050625134163232 -1.082101441558678 0.3512868282049766 0.5891125307823647 0.414523253323805 -1.626688040747974 0.2654749558311243 -0.3918564990006811 0.472089857117064 1.837635290696586 -0.085689347653054 -0.5205442712889823 -0.7432147702245879 -0.3294247161728486 -0.2194930725271136 0.4491719146818883 0.5273066767926926 0.3143719229287305 0.1840212808743818 -0.1736478556424658 -1.106387839695874 0.4189827206163584 -0.01013655053758825 -0.1999971346574695 -1.263227939744999 -0.1443174548522395 0.04580650938739737 -0.415951572259627 0.1338375223691719 
-0.4439025883713583 0.3545695982121072 -0.4541492154248216 0.2972833684291995 -1.005091000287687 0.289508402051181 0.7239281494864652 -0.0890883570642745 0.5258035280558472 -0.3655599195651055 -0.5678698092056413 0.1791603326058518 -0.4019125361145096 -0.2495852800847811 0.5317386672760971 -0.1155587066416955 -0.140570405656855 -0.1677647370277676 -0.4129628536933384 -0.09198509823202831 -0.2475804423529409 -0.2243211975328575 -0.2129405141984143 0.007048717059382855 -0.04665464861028421 0.08798330502216742 0.609731684389003 -0.02250369292724467 0.4897980398488437 0.2336844138294886 0.997185122691678 -1.543461406622464 0.03097088756112261 0.5410390890577221 -0.1763203896482666 0.6481340032905804 0.3227972809863336 0.5014288159828201 0.2326201301095721 0.332861180508261 -0.1990541058913222 0.0832220713338457 -0.4981689293642628 0.4616407169190875 -0.5321463666413906 -0.2565852851490181 0.5332986969124588 -0.2709177367116806 -0.2887478195445891 0.9524339410150917 0.2053109195708006 -1.214834444020859 0.2293800032840791 0.3224682074679009 -0.4346386584059772 -0.6807453283159458 2.010815800496474 0.234986144603897 0.03507293134378639 0.1267636340354527 0.41606583975528 0.3658442557454772 -0.6679078332988129 -0.4161504275707539 0.5077759227769619 0.1977779790365984 0.7655379153835794 -0.3829208109861075 0.2037339011137107 -0.3092070205039287 -0.3091684828969186 -0.007225103140199837 -1.034306414676527 0.4604956728514338 0.6905652604488526 0.5885811010085326 -1.279062273397681 -0.3152023454064044 -0.2617874294112929 0.907977328830321 1.500201019276832 -0.4444674557111734 -0.5277904143065345 -0.426215346635861 -0.4303546951288499 0.262157546200475 0.6353534557570709 0.5457174319534207 0.152061644104916 -0.05387176315616062 0.008544416374505103 -0.8476313545197225 0.5931265644338208 0.3054013140375719 -0.06120506309461776 -1.028846390459683 -0.1569824970208743 -0.07529452894703335 -0.4015410585364379 0.04059058139299326 
-0.04000832307810229 0.1908066867312289 -0.361957554836058 -0.03568437001961228 -0.863204833293765 -0.05548254242946646 0.5645486887705741 -0.2413321782335035 0.7403800104936374 -0.3196705334604587 -0.6584919924165025 -0.4145347611863137 0.09278624140150311 -0.5487191083884891 0.6786327853350337 0.02917445647999656 0.04114209296941792 -0.1865470133235099 -0.3273161398824976 -0.1600694566034091 0.0698987547183554 -0.12244944440277 -0.7213763188711569 -0.1606551030788176 0.1425664093886318 0.01569551837680762 0.5513587707609199 -0.09162475587735829 0.2037469655662948 0.1141115864239375 -0.0194639357116664 -1.631213615756135 0.2433940704789598 0.5811251769818752 -0.2773170221286412 0.5075717061633656 0.2396761743027376 0.5329551815144434 0.1381913021647795 0.378251734180541 -0.2030412928099263 0.2334035043248168 0.1250444324337245 0.5354482240561196 -0.4883601415521276 -0.09720329326821996 0.3101674745892484 -0.2987052337401976 -0.3121803937012563 1.0252636072533 0.305323815461023 -1.064439237875678 -0.451195468721084 0.449047619039273 -0.557947412256154 -0.4212343181838327 2.608692243483107 0.2411621000195136 -0.202461579205162 0.05871505014885892 0.07868262806815944 0.2439911115674063 -0.493800664571206 -0.2079021938984706 0.2478206892961606 0.1169884541906141 0.428984677405767 -0.3781714419319399 0.07091913431552974 -0.2144347249877671 0.03463662174838505 0.01530514183544496 -0.9784772428236284 0.7534145082825863 0.7478853094322259 0.9136542127538375 -1.086391598734712 -0.5968788433234791 0.1112217819582491 1.083410644914062 1.243792734705016 -0.482992528077056 -0.5456581924524292 -0.08040197649462059 -0.2610733954013313 0.5614123836347285 0.6096591161197 0.4362335337289259 0.1738145967109437 -0.4325094839237901 0.4640379356118373 -0.9595307982765572 0.656445482989335 0.260004740945763 -0.258071105288582 -0.9746730109113648 -0.2179638652046893 -0.2597617273949399 -0.4155753799587653 -0.0552332566848108 
-0.1281375239734023 0.02944217833312857 -0.2792006448587053 -0.08874578900849567 -0.4639891691729079 -0.2281929905129361 0.2645792014302812 -0.3686423201823678 0.4703504498766961 -0.247552032471692 -0.8718495863933164 -0.6639524173943084 0.2707382338606098 -0.1548897566008569 0.529902884804651 0.02653938540439873 0.3824209632740587 -0.05115863622296191 -0.07514351190331252 0.07653851712107781 -0.1689960167898698 0.08618034667212014 -0.6026839618382377 -0.518447488393751 0.3500742647077479 0.04112129085282462 0.6336663900816776 -0.4894093412405113 0.19528256566249 0.2371211578350706 -0.9331636231567554 -1.231500414111547 0.0399125105331288 0.7914947610190958 -0.369322069627467 0.6400496983208342 -0.2362350946146621 0.5046248445196062 0.02597559012194081 0.4232780527704972 -0.4692115995962995 0.339391462603626 0.4149975300424069 0.421081198648001 -0.7259969391332333 0.1218702054794242 0.3582021630857339 -0.5104131725768587 0.1018586365950862 1.005751077843876 0.3886891371676459 -0.3755207991246212 -0.5956771005005601 0.179097284116711 -0.6523350945997717 -0.2015843528254145 2.889300018858016 0.3115407177203597 -0.3551334546919609 -0.3482880035500268 -0.1475666087006844 0.9745526318646598 -0.2264783860817936 0.137774123316653 0.03301841839223801 -0.09798159554234323 0.1876006406768153 -0.4660104464330873 -0.201408714141666 -0.2367615334470431 0.5730233802937074 -0.06448987833811251 -1.032507890854526 0.8195956732702215 0.7273212686704421 0.7849064118603222 -1.065832586740846 -0.1582071172279768 0.003332711901537287 0.7482446858253915 0.6458781912573615 -0.3755209807164948 -0.1433108282314286 0.03245761553645351 -0.1537632277687426 0.3479329313971349 0.2743220968667983 0.4523093448157808 0.4203742875929357 -0.5964095345768278 0.52083908437033 -1.05737802041647 0.640369597470353 -0.1255910491344577 -0.3113327786584961 -0.7432944093923283 -0.4970201683850965 -0.2824074518138949 -0.5507525432438208 0.01334984828807599 
-0.3568047504536334 0.4946417980185566 -0.2127789829924165 -0.1810204237597461 0.5453786804407721 -0.2859585574691337 0.3335275817582472 -0.4830698410944515 0.5362453817302294 -0.2815226764805302 -1.055860457035252 -0.5906675398725262 0.008254928678931893 0.06610307295380283 0.5739648099417264 0.03157280850352943 0.5063519301145476 -0.0510406958170688 -0.1476402011161932 0.3575237784098415 -0.005463662171630114 0.4164549452911302 -0.790883732219118 -0.1094464273387675 0.2751654378414501 -0.2885115540164772 0.4850039962973118 -0.3115952401291707 0.6286989100250439 0.1569066928055677 -0.8733437761773687 -1.260154531842644 -0.4100543105246854 0.944303982141001 -0.3834757842941494 0.9960681494142808 -0.3137489987279713 0.1517944747376038 -0.3871890297924619 0.6173869443214349 -0.407910612912781 0.2260565049256815 0.1914252419742517 0.06809432133974169 -0.9442914539486009 0.5743224019743268 0.3952717314359609 -0.9852112336469573 0.8626114584480497 0.7394163582855539 -0.4314398604578152 -0.01230730922796487 -0.05413279974820606 -0.3230665117865305 -0.8403665545764227 0.1873947447621764 2.847134430724267 0.289725564870257 -0.5324975875979802 -0.9763959488848434 -0.3057371404991788 1.371536125835367 -0.1727609317811815 0.09490683257918563 0.1411841335884314 -0.08367006677177515 0.5157621372876402 -0.7107681896117144 -0.1334455607925138 0.055708576381156 0.5663504028946429 0.07731930655894242 -1.509546285233611 0.3932794815871526 0.9244622013479863 0.5356582701493405 -1.032823222291623 0.4886012245679412 -0.332911931922598 0.2534769798286537 -0.2792520398833424 -0.06447630917319241 0.1844206472781124 -0.01651241304855869 0.06128336910168294 -0.03666474172193505 0.3134752326666221 0.1501774722849349 0.8776333465814941 -0.3534405693318025 0.1248218345161027 -1.017621220835321 0.05538222579705707 -0.6979991053343573 -0.818118054811614 -0.6138397543149732 -0.6615749217259617 -0.2141882865462584 -0.5097763907645133 -0.1524693404293843 
-0.5793669724619031 0.3977301755072841 -0.3228436086090184 0.0151204207141173 0.7261734656529716 0.2254023683817986 0.4661586684477247 -0.3660641691382175 0.9575798179084237 -0.09778256064914384 -1.198616218638646 0.04763896160495306 -0.343045730883469 0.4553085346998652 0.9543203713668977 -0.09810974845695083 -0.2745872267297022 -0.2273409932132798 -0.08362367787757524 0.4734579145806302 0.2720863534539576 0.3345236246428042 -0.582982841356442 -0.108181393981689 0.1216660206141869 -0.4160923095160533 0.4573603736570881 -0.3748903490151065 0.9957594663609034 0.09387915810131835 0.02509484556471172 -1.532725086598574 -0.6832344375233245 0.9887582098259564 -0.305730951602036 1.154702647539583 -0.5102929435250667 0.03713989554441677 -0.2149577896646619 0.5022929617867004 -0.251536726474758 0.1372474324895933 -0.2509111906374946 -0.5228817455370124 -0.7025313905978258 0.4892264151046627 0.2307570284942272 -1.005162188325769 1.58519423898138 0.1230318023718313 -1.172691354315311 0.2590537253798293 0.587118432526667 -0.3860036383832089 -0.5976412699609009 0.4836192934360533 1.934920553680787 0.1148957211818961 -0.9148506559832678 -0.8084255521079216 -0.592977712315179 1.268814540377545 -0.6692874142829074 -0.05188577170721476 -0.1633720902723419 0.1296523229985115 1.804475252933999 -0.7587517402058538 0.03086564873604056 0.1656705955697857 0.1687649361241562 -0.04874357279762945 -1.319379014676073 0.1132892208389968 1.004977888979122 0.442064890764378 -1.340916358304701 0.8993392400177351 -0.5228696461098857 -0.2203133080580856 -1.819863447417601 0.3683750915337459 0.07140820373148929 -0.3207441430805618 -0.05019783869090187 -0.5167975518812608 0.7285764740365371 0.1774056321007144 0.8461075640401178 -0.3081259464714128 -0.5026732963129865 -0.7449973783252319 0.1381061915976666 -0.7397300313506299 -0.901051801819576 -0.8771457757376665 -0.3449760830278752 -0.2700585942836401 -0.3011933679255164 -0.10888695628364 
-0.3917932094173422 0.2463570535373305 -0.4166310985068095 0.4891243445136958 1.120964557894585 0.2550443192247799 0.1482345564962941 -0.4849656230653984 2.087504649862693 0.03736816926441446 -1.278703901380569 0.2838019291653026 -0.925805199624479 0.920299134036592 0.8615067616236096 -0.2721310851175726 -0.6236301231947015 -0.3200588637273895 0.00223326597656858 0.4037073307739278 0.7108089015024995 0.5125975268111791 0.4403976979839171 -0.1602023486225977 -0.1998675361706859 -0.2842450988956238 0.4871645438632923 -0.2869323292696904 0.5603984077536779 -0.06961017066498518 0.1244836356081226 -0.4546525882627241 -1.136228984000205 1.150580978275178 -0.4492078578039345 0.8147960029359689 -0.3833233827472604 -0.2412092179655325 0.2061689812079058 0.9962159992048063 0.2564324945384371 -0.4504768478434202 0.0909806779119062 -0.5656333574836312 -0.3372486541712728 0.252577894499773 -0.2926392421213265 -0.763452060849068 1.490615847311499 0.4939952562109611 -1.613974600881269 0.3397648262730108 0.333517890806221 0.1835565758929963 -0.1480236451915197 0.838378352020522 1.363784481368078 0.1449757647335234 -1.051443759065491 -0.08777895573168307 -0.3268244177751357 0.2797352517648831 -0.9407581064115879 -0.1221491566972802 -0.7891463793023695 0.02612005058206401 1.520628066762539 -0.3246695565610824 0.6105325224752344 -0.009704175039714324 -0.4266346611518583 -0.03809972247856483 -0.759654362850946 -0.1428030044199982 0.3751115932448039 -0.2230602195367372 -1.124997848825613 0.8446399421469506 -0.2359062161415236 -0.1532676077657275 -2.681194402110331 0.949527742481028 -0.3239162861086544 -0.3718729510040695 0.07732006691184036 -0.3817098456345308 0.4597469337296068 -0.180835676872449 0.6685706332355328 -0.02709798801492601 -0.6947006546160645 -0.7438374829266798 0.1852697423254191 -0.371153971100824 -0.7475270599370983 -1.008020747477302 -0.2883375302545885 -0.1238293959065911 0.219697330170906 -0.2123327973062835 
-0.07659386074957794 0.3880207014678947 -0.3718799262711459 -0.02079472449980373 0.7783013664852305 -0.1750782832620178 -0.1638202798025425 -0.3448011466887814 2.627721475976406 -0.09509442940510565 -1.367831195342085 -0.1566471148671333 -0.9042123400679543 0.3566287014882797 0.7755108532176234 -0.4950134459513879 -0.03507128127553005 -0.3431161297167991 0.4356426320460021 0.6568354275064638 0.4663746146668022 0.9684805021391346 0.4531084248798793 0.1977390633653341 -0.4812118075248842 -0.379527659083726 -0.3289085078324929 -0.07175845945866165 0.5575565505974908 -0.3826835035703294 -0.04019058091719865 -0.828957493694892 -0.9227965575816623 0.9451698718383645 -0.5968197277475286 0.2628283015181363 -0.5179386718587582 -0.1976065163474685 -0.08398588924415658 1.06005553931388 0.715709529757228 -0.520550636913396 0.1094575504857125 -0.0829741982682325 -0.1233580752214301 0.1064003107847115 -0.6010299887704393 -0.292076422714577 0.6429772422999945 0.7389762308192636 -1.824517840446587 0.2897263020720685 0.4961057863026017 0.5414466494183398 0.114185229627452 0.9086846292047565 0.7204280879751733 0.2705896453641647 -0.6921394098143538 -0.4740432029658628 -0.1568242239090827 -0.1919229006501603 -0.857676107888766 -0.3877962135281699 -0.2911324862855796 0.1728468021402476 1.051364941209321 -0.2532205737840805 0.6462357386250555 -0.2053321765140438 -1.065744394253325 -0.0382711303353016 -1.323831925505282 -0.009476265071823982 -0.1271629959425883 -0.5494560880556221 -0.9275612506971564 0.5165686839427595 0.04034905273589029 -0.07544324227104005 -2.864433078416933 1.161203709473775 -0.1686965005546252 -0.5062419750165985 -0.01430564931180809 -0.4716539377351319 0.1833514583205019 -0.505848292484549 0.6124787302917153 0.1710433617455263 -0.6291578299964793 -0.5576038513427304 -0.083175353334448 -1.015007311998053 0.3570375262903772 -0.4970572885604346 -0.02301407688259939 0.06405021318641689 0.4766644476887437 -0.03122134460046645 
0.352868857459599 -0.1439731871758224 -0.5184601345994149 -0.5702611142345235 0.5488415354123829 -0.3440844461465695 -0.4393420454526106 -0.2758407724515324 2.304292347314129 -0.323701572695571 -0.9648047003257344 -0.4148567278282216 -0.7014865558718395 -0.1502328966687771 1.093162519342608 -0.7391510274762552 0.4849878901538436 -0.08425235353111739 0.7813442457624334 0.6522837099338807 0.2486884855113993 0.7351272642913224 0.5827104632868028 -0.009043446636675721 -0.3559454365390061 -0.2155264775785641 0.1509841998702837 0.1430850034940792 0.2212193186370998 -0.9451952977721215 0.2234680531677434 -1.189152293987297 -0.593495655848019 1.130905697945992 -0.639735712553136 0.02092318937506079 -0.1765013672399884 0.0710090014509957 -0.2697702998819002 0.6597127261206689 0.3129827865858786 -0.2764103545183217 1.113015179985173 0.5156376475673006 -0.3216085753780142 0.1418259902505624 -0.4422629828278479 -0.4141298327852772 0.4481954147634208 0.7435680864956189 -1.462999278689816 0.32266705070796 0.6403974753551829 0.4312545990197234 0.0700211687951077 0.6372998870130636 -0.08204538654342097 0.1312957162711922 -0.6685045192938854 -0.7195730072709468 0.226210895524369 -0.2249117523265624 -0.7682490291482023 0.08336326230452848 0.3756619629267764 0.6002065939250131 0.8737450207954112 -0.4609435294041834 0.7044830586255222 -0.2236264839756698 -1.289393425472513 0.08650281288170393 -1.85891684447006 0.009399339745697583 -0.3234052739933999 -0.5179608766749505 -0.645315152614179 -0.15344399943621 0.2496778810591143 -0.01950826742850551 -2.229842778849114 1.037855171601067 -0.1717868706520973 -0.3027096955399701 0.3354869770474225 -0.5720525546219649 0.2231516092791258 -0.03571518794390826 0.6424382861436098 0.2109276890155644 -0.5319617464384268 -0.3307639480373784 -0.1364909382574942 -0.8573296743197704 0.8666597301542901 -0.2754724650994303 -0.2133271442924804 0.2637185043363851 0.4010710413904799 -0.1987972354837639 
0.9077706260613531 -0.1121154316291306 -0.536838376143541 -0.1817456431284466 0.3209094083444468 -0.4011994688981564 -0.5919564931057271 -0.1786416042807148 1.678968263105305 0.06924686710601545 -0.850618070335915 -0.6960503173973661 -0.3463768611548627 -0.3132467261015031 0.9369585606839677 -0.3358744131826237 0.6050625614335788 0.2143890375717817 0.539345686982111 0.2039419347977059 0.1771650204885755 0.4134943532941417 0.6857010213039603 0.2625967407489795 -0.2368964562875689 -0.2911708837537421 0.7527740432253334 0.06028557959390841 -0.2164056697156237 -0.2299071186437817 0.2640670899758911 -0.6944695185217867 -0.3706737206817784 1.278021927574762 -0.4776748233429777 0.2334280182573026 0.01098919584930162 0.2269863827665841 -0.219178308283677 0.288873224746759 0.03924628872767362 -0.09254630180209029 1.010141702632438 0.6135317605331502 -0.6521629082985397 0.2117112452185877 -0.3584453321940729 -0.7337747314630767 -0.1028949863229481 0.7213425265111817 -0.9897806599293489 -0.2616213307247625 0.4384422189580474 0.09647112669313992 -0.1190526220301095 -0.01548277149349885 -0.6639719525451137 -0.1454861996075839 -0.2872384950072197 -0.8048685836338428 -0.00185974929259582 -0.08942215045948411 -0.6340438596797993 0.007821093388101429 0.2057258501016696 0.5974274630645634 0.7932027138796454 -0.4851510099249055 0.4302421677645656 0.03764810711205699 -1.30521405250756 0.03797903886204162 -1.467187522211927 -0.2925847853275014 -0.0428952893226603 -1.110396177502327 -0.6435581304051086 -0.2479862331401844 0.1078275421800721 0.3572302187020183 -1.44063883188393 0.7089762124563793 -0.1921930989619309 -0.2178079447266023 0.06152610021786713 -0.6194038335264358 0.6550162493911511 -0.1263862882624238 0.1179679262914249 0.247561916609589 -0.4431534676088325 0.1842082993570606 -0.4279568291624334 -0.289338455799992 0.6152177969709031 0.0004639941564065385 -0.2209429355860181 0.004836370948095358 0.07204918544271285 -0.2124971561888348 
1.609622362458623 0.05196167793932237 -0.5139834889521485 0.1727392459725563 0.3923068465956631 -0.08514368798793369 -0.5005908036787355 -0.3383169626887853 1.167422466332021 0.09225380044629557 -0.382319903642971 -0.8535189242842575 -0.1021327189541472 -0.346500816498377 0.897956116788706 -0.04995029246595113 0.4015039953861977 0.1872391608185621 0.6997483042595131 -0.2204529308397314 0.3296000187686334 0.6580733888841589 0.2383212871461083 0.2324644921990749 -0.4986670255502786 -0.3848411181509858 1.033920076692909 0.05944501166837344 -0.5453898522526912 0.2627136687785679 -0.0536454787546204 -0.2190829897180275 -0.5784685753661705 1.351792111831136 -0.362140549492513 0.1670217302579939 -0.04836146059793061 0.1311058138962912 -0.4645354106661497 0.1022609268089819 0.09168935035441012 -0.09308784117694147 0.9363824150679037 0.3207927652565578 -0.4578209862081819 0.07559017790772735 -0.09916515892422144 -0.8398057790092959 0.803599125851245 0.8739363253943379 -0.310078627546809 -0.2086236297369403 0.3979524185776186 -0.2996129234534172 -0.1020126515824422 -0.4821351363058428 -0.7560107018905861 0.1984741233400352 -0.2020467649972247 -0.7070295572729489 0.2165517815736738 -0.06718286794118226 -0.4575598009049284 -0.3070590468538499 0.06297101799252944 0.6399812987146056 0.3477722551702945 -0.6099620119946028 0.1173566160913654 0.03675935198267938 -1.394235226423785 -0.2355780597880768 -1.281679369214046 -0.9146365000117692 0.5876703447199503 -1.68283156489595 -0.6113043259453372 -0.4266734894899423 -0.2151355384032098 0.8620057858381693 -0.809731220558559 0.5821905737870977 -0.2006034385831331 -0.0737023389601022 -0.01599438519871698 -0.4737406443526898 0.6119793112051592 -0.5208135895853495 -0.005091443233660587 -0.09932486583175693 -0.4690921554247542 0.5840292666837685 -0.4379419451439979 -0.2280862316177263 0.04609707449992248 -0.2282725977471286 -0.2113770226559266 -0.4923713894268812 0.2199842164602892 -0.229923229152082 
1.413319126412105 0.3635408957836035 -0.1663661352887763 0.16413859395502 0.2011800204508635 -0.08497225396397831 -0.08395550207775722 -0.5569169539524624 0.683761652214529 -0.2603737022408661 -0.5654945263064081 -0.5653111364691463 -0.2643538500324659 0.1536830953706489 0.6680400766481142 0.03373554947194449 0.09641243467747064 -0.008043947658051697 0.7959071986644518 0.0622318638276503 0.4186124596589044 1.151574996755984 0.1479858786807304 0.04767057042770733 -0.6024973432058877 -0.642345077641144 0.7600995196244912 -0.2526032368910636 -0.2581105169378814 0.3162098020593704 0.2398141993688437 -0.2640349302226364 -0.667747552629106 1.495820680737949 -0.2956627533159813 0.3291109402311044 0.04450417697012839 -0.03091617432131375 -0.5916641951004217 0.6359959976976186 0.2608647201424388 -0.5411466205654433 0.5700751409741923 0.1534567926577483 -0.4440529504226922 -0.36370768486573 -0.0677507625803863 -0.2744146878100491 0.7773068596295447 0.706697624110396 0.4360357295047239 -0.08569202956641403 0.3226896437191788 -0.5352977000995967 -0.338643725725062 -0.7258416384127825 -0.195787470652095 0.5387640219804815 -0.1977773659457342 -0.3917365501899212 -0.1879556948840952 -0.2492111673242526 -0.2309867074263062 -0.5254551461703129 -0.03758373965398019 1.192699604181887 -0.03336125849665757 -0.4160575490687519 0.1510291309628018 -0.07265466553608613 -1.138661620888467 -0.2886426231260199 -1.015559053305771 -1.096022909380182 0.7168191314303271 -1.932882426044707 -0.7663369228018772 -0.06831508423598541 -0.3097675965312061 0.4727216385780854 -0.8660601783032991 0.7307134830599383 0.01769830002870278 0.2266024431802444 0.3632147944368759 -0.2782518551704363 0.3280561791653199 -0.5963647747213582 -0.196847229447771 -0.2239885243787852 -0.3679141274760911 0.6094407136765184 0.04709931654384234 -0.4756218959302462 -0.6050664592889221 -0.4849720596867386 -0.1463924738320805 -0.7728449798433812 0.01310884080816752 -0.1312284588152405 
0.9161732349157332 0.1000222514241684 0.07890444136089761 0.2146132957014225 0.2977254984146762 -1.061755508434128 -0.05954299530993486 -0.5196793921027252 0.658389389727531 -0.8210778092381781 -0.4898515115740126 -0.1543702645921574 -0.7203491779021712 0.2178704314521866 0.5769367084178304 -0.09688112005743973 -0.046208504805832 -0.08584175004038154 0.7510299383788283 0.240978207819332 0.5257811915906885 0.7165440352704793 0.2799989630961995 -0.04436982012695134 -1.068011426070258 -0.8410338888156289 0.4397521833583525 -0.6312778023398916 0.0781908383418724 -0.3591310056999175 0.5808107085772329 -0.2109339321039524 -0.6927721727862128 1.144482384539109 -0.1984705779658062 0.3712872159509298 0.1341811114503227 -0.5108929010485769 -0.6741066730159223 0.6282663832159403 0.3495633522986414 -0.8130413059326774 0.6477434023394768 0.350568524788042 -0.2606609747127312 -0.5087344290400371 -0.412440633765152 0.6934290037517912 0.6746662957885181 0.3588945003565398 1.25735223974608 0.3760521709789409 0.5201450790601427 -0.4504576937413731 -0.3017424219748427 -0.5011931813413206 -0.4887223696143492 0.2548105021915485 -0.0582749338875788 0.1047245838990983 -0.8332243339311328 -0.7766273362757329 -0.5424222801887718 -0.01357776183876079 -0.07536751649038678 1.058628551646493 -0.478860965158022 -0.08315857541522265 0.2146732561263128 -0.2006891558011707 -0.7859968451033886 -0.4323606915782003 -0.9073199656732847 -0.5810136968307714 0.358980304569236 -1.660315316530181 -0.6399711691737561 -0.06735195024366533 0.1899708319002454 0.166803145403737 -0.150435021674467 0.4406311760822448 0.0564606769213561 0.2269282280930221 0.3114592202838888 0.2007954033159847 -0.0248659768339107 -0.3322897520775919 -0.2407723475801245 -0.02481926393949038 -0.2096640876489052 0.5415582794320417 0.2787237513073557 -0.001147164027742957 -1.183499300317729 -0.705303606144903 -0.5629155925043851 -0.8842149372279834 0.03869365807948615 -0.07111913206184907 
0.5623341368569683 0.2665930080954829 0.3884351562967095 0.2757788350042213 0.3946293108362345 -0.9096125522914545 -0.3023325316849326 -0.4479576099298554 0.6054983916997544 -0.9205904866450303 -0.3540170963864836 0.2190286904223352 -0.8535947020451298 -0.1797700563053796 0.2526135909239134 -0.2529446101080502 0.0236520929202657 0.2889723513299431 0.2636956779412455 0.2698441984265787 0.1301661362835576 0.708827444895865 0.490696341735418 0.01583273347297588 -1.129714033880946 -1.376408414687632 0.4304051520669899 -0.3447480297827717 0.1829785856563803 -0.5064105660352638 0.2888422794426704 -0.3069705053728479 -0.9768312674712004 1.060929226383707 0.2004105325635175 0.4667290380483941 0.1058457702762153 -0.6794840816330314 0.07080852759723982 0.5959542481870003 0.2147535313575641 -1.026382146942392 0.7916251874358319 0.3899823588302965 -0.07870556040970959 -0.1098263156216598 -0.3086303428431646 0.7900331281918602 0.9093049901129229 -0.2612394313839674 1.303333271215663 0.2943418613816395 0.5694487605439158 -0.3662584868950889 -0.6908197586952359 -0.4221295835803657 -0.9002853945052137 0.3733828826304734 -0.1216624217364352 -0.2747066965937351 -0.7433506549373308 -0.686661077953768 -0.6495123504564321 0.1401761025767961 -0.6529202702900111 0.7322435866988678 -0.6430603268482917 -0.1129075422763603 0.1477344071672737 -0.08770127846981444 -0.4642078876612774 -0.4887204122229281 -1.281982983697685 -0.2006019191594015 0.3175051487021629 -1.045013534477127 -0.8014002409863257 0.2419992471811106 0.6764698892047689 -0.2816844979921182 0.2268568882640921 0.1409161911969333 -0.08879970966685709 0.2101755291462475 0.2133881319954692 0.3846262985190942 -0.1111856681844272 -0.2718218311067339 -0.3263753133996692 0.2249483048163592 -0.2302037649043537 0.3733136534443203 0.1876134208713529 0.3470240833974818 -1.488108239647254 -0.9428079681207731 -0.563947924853179 -0.840328809242665 0.07520672354092534 0.01127412265190873 
0.350864107833236 0.2348024448501347 0.3352242299686667 0.329386971616622 0.06484925682418564 -1.017995675059818 -0.1920936643848677 -0.3729849585694729 0.3493194527466511 -0.7639318960401017 -0.2194327685285506 0.3952139312658582 -0.8851433557419005 -0.2826536385696957 0.09391454754715955 -0.5034484182454143 0.1907056945775742 0.4376547499661111 -0.1696182763258875 0.2727061885910236 0.4242309385328098 0.7549114279861422 0.4680972563358575 0.08187171804904642 -0.8637254741177183 -1.305299484740528 0.2450969266939803 -0.2822358767171351 0.03924228902184634 -0.07021213455622742 0.2480491534388426 -0.264724349778924 -1.301717472448903 1.256439567342319 0.3349886441367027 0.5041708376204475 0.08373718313498781 -0.763851684953252 0.463728628639869 0.5525055447199472 -0.1504680332007004 -0.9212690243613954 0.6900671397015365 0.6379432162288236 -0.09861384724922009 0.2423190612963171 -0.2632645611702269 0.1939103474826966 1.106215480434274 -0.3532584336848862 1.049108837416326 0.03867358476070942 0.6786460424953221 -0.4333724112131879 -0.9717719153984297 -0.3086826436583369 -1.400108069619368 0.1912387970650939 -0.01901725474796192 -0.3085099770956696 -0.2349298590371619 -0.357723667927989 -0.9635545609727927 -0.2907977044236807 -0.9771926979686945 0.422798635805495 -0.6239702808819209 -0.04977623779996313 0.01408081638404136 -0.06282115219564571 -0.1190083211261716 -0.5576011451263606 -1.410483929498333 -0.05866195433196847 0.5414748563708542 -0.7682383553960818 -0.9835524766306346 0.5272725510991496 0.4076280436920515 -0.4005578047407981 0.4936206324191899 0.1904505834299074 0.160362292622985 0.3021651529572511 0.2771822406281227 0.5624782146674343 0.4512488550340455 -0.3138722020257451 -0.1521922149997998 -0.0004021335695589398 -0.1502372865932469 0.3854952844861423 -0.3062165123530377 0.05967518367102368 -1.487313448477365 -0.8366882642051795 0.01083318331323652 -0.7362146140846439 0.1919469689285766 0.1577800479794185 
0.1195147626740908 0.5754605288628382 0.120524920993965 0.3278106220556796 -0.05729630053176384 -0.6636150853000073 -0.09144437219493387 -0.3682828942449761 0.4874843973417001 -0.1220268325277678 -0.03085071395125303 0.5400646285589086 -0.7845897465442722 -0.6213882715144697 -0.234955962367278 -0.5934961783379399 0.3748794838028456 0.5220935682342492 -0.5512998775906359 0.1439586465062396 0.3721644615027523 0.6601675691288991 0.3782929066275802 -0.02832701043393542 -0.5313864550394376 -1.057613113491296 -0.3212614241295743 -0.1259636038364263 -0.4067039540767947 -0.04204831845496477 0.309464720091257 -0.5023545449668974 -1.13330955852632 1.365168588861356 0.3935664565697029 0.2921144714385002 0.4026534075696604 -0.3942144341676313 -0.1863163689726232 0.6168295801826739 -0.21365810008862 -0.8960976872977846 0.3715316779457675 0.7289353065339765 0.003535691321859765 0.5221059923137769 -0.3035807310831294 -0.1690013208843938 0.5581794298313577 -0.1068437064741319 0.7149053839837113 0.395263039319205 0.5162766027017228 -0.3499039319382136 -1.013147531659284 -0.187247824531157 -0.925630593870914 0.2655705602613139 -0.02587165122606748 -0.003204936877473718 0.1769371654756455 -0.1916919485079501 -1.256249580361388 -0.186037716321196 -0.9792322141249142 0.6815846291763434 -0.3006404661567397 -0.009660969743201225 -0.0827547289912149 -0.112000895943596 0.03215878120092578 -0.4978923352810654 -1.467833434390923 -0.3803324009173959 0.8209415816952881 -0.6335445447169001 -0.8905030267100955 0.7726239137758263 0.05057492754940288 -0.4827887588480013 0.2491566664135368 0.5674102659825836 0.08926793129133277 0.2461095199528345 0.2332129985298303 0.1115499718284958 0.7233418736306688 -0.2866888662702808 0.03266657074753686 -0.1388329399961047 -0.1505101748664349 0.5766314753891073 -0.26523387641695 -0.09734841425438077 -0.966327296244108 -0.620169057635013 0.8590812543951183 -0.6407829866494803 0.2658787274396244 0.1148626984685425 
-0.05665804651934746 0.03225815324612918 0.09936099242436915 0.1781521600432379 -0.249083766774906 -0.3617122769290189 -0.1411740367466001 -0.3739510548822753 0.1392396177793565 0.2007880291758676 0.528202327437318 0.9139984811305204 -0.6441125917519668 -0.8382736978325417 -0.1022084659697552 -0.5441082420450308 0.09466342602166025 0.2658952714237912 -0.5416466246188451 0.1574308246898153 0.1224570354827182 0.386258777885838 0.3359097897786525 -0.6182380138123124 -0.1180413858574052 -1.02442251504901 -0.6353304841661499 0.01364129756677954 -0.4621716496590448 0.1068185778933979 0.4549613789253317 -0.0641593246437239 -0.774949928360037 1.373006815393999 0.3028937516957618 0.2246359821243792 0.4320811346198694 -0.09183826439358261 -0.4693432283595905 0.7139722892231622 -0.2589943133693863 -0.6523983760861433 0.1725596119162709 0.5598192578111856 0.09731881842823888 0.5591539123704576 -0.3117976531877735 -0.3747751752328023 0.1006324453887684 -0.007628221233174527 0.2462325784847018 0.1355225280943773 0.06519929731926817 -0.5486506171876184 -0.4080995320892873 -0.03351015391969776 -0.5883948203151813 0.2356669179097236 0.3379225629483837 0.196960967939771 -0.02143227755334904 0.1159664713402889 -1.423566496401347 0.2002686381192169 -0.9826828920268567 0.6879548593935121 -0.3001507649342141 0.2724612605840043 -0.09137432951912496 -0.1021962879332186 0.4209094242016294 -0.4986445694329982 -1.02160123183605 -0.4396232819992968 0.8498203592053799 -0.3821474366862407 -0.5166353700842949 0.7901197069567873 0.002663462392281357 -0.3712413408200807 0.2190938709821102 0.5697119942959307 0.2078830627171015 0.2124480012553909 0.2590126111194292 0.07274504416145634 0.6114048111808944 -0.1304653183634687 0.06560158986989288 0.160019799585996 -0.2775174946193882 0.8926902355760575 -0.2792620968149306 -0.1031598631565127 -0.4859961693739602 -0.1740034380686356 0.8117198970067138 -0.3387483961670915 -0.1659265155392437 -0.05286291533498547 
-0.268598397922697 -0.1155082218715041 -0.1062337823995182 0.09196025073334563 -0.00210501654803673 -0.4668787009574016 -0.08658697253625296 -0.4158189937584418 0.2270470451452858 0.1464455680712636 0.7749288099260359 0.9506038057193608 -0.4371585450721677 -0.783969808924313 -0.1630996069206874 -0.3085423292987989 -0.0002080852077319306 -0.175827815490235 -0.4348875889576063 0.2777257836800202 0.2077102380000781 -0.1257628018805267 0.473653653057735 -0.8963770301652738 0.1209129592023492 -0.7833069383964434 -0.5859284104136188 -0.05397448818387207 -0.5497482298701599 0.3635162739843414 0.5219873608830065 0.2708100590640126 -0.7093255692601852 1.105470659513951 0.2269402155396772 0.1294425428365102 0.4744519932399788 -0.2224609779628896 -0.2462293388873026 0.5932165658373866 0.08580425021200723 -0.5923629397411697 -0.2429319804800013 0.4691730748343323 0.2488723171713659 0.3340511216306719 -0.0701749891395573 -0.3218253165577674 -0.06297104352777672 0.2358713448551809 0.03225465771283867 -0.02792399162760816 0.4883841445306015 -0.3623434454471442 0.1860223808470867 -0.2247586240135955 -0.400945244017292 -0.007126326278385474 0.2140546253456283 0.1834266429574934 0.06603086251301386 0.09263622462257809 -0.8660784075388082 0.6968451939305136 -0.4848572614785818 -0.0689604752013525 -0.5434375757577015 0.2194256608638078 -0.2899377693179819 -0.1439659234721902 0.3867596085091455 -0.3648769697334507 -1.053406552180546 -0.3443606754973233 0.6042638089933219 -0.1675146959583993 -0.324491846130045 0.5054482591510596 0.177457956418329 -0.4217475767331818 0.1878976796634117 0.3117924191555338 -0.02630770433276744 0.2875929742667456 -0.05111126039229844 -0.05356158471094442 0.07383515546986941 0.1819993782097326 0.1122144540724986 0.3230736623364033 -0.1685602612693594 0.6828325957869957 -0.3863451778577872 -0.1225504509141247 -0.1415699083933197 -0.3240909927818327 0.4952069747400263 -0.141825610642129 -0.3256946497171928 -0.03248490203849017 
-0.9833741973985227 0.04561353399724383 -0.1980647418560587 0.8357642257112786 0.3915597265642284 -0.4871353137294143 -0.2420276345240538 -0.3062559539765 0.2244039209365194 -0.07819110370246142 0.9321529650887556 1.011203119213124 -0.4642176618317429 -0.407444607972881 -0.2930353405276227 -0.16807120153333 0.1472551593384634 -0.2486678924979359 -0.246629484420247 0.300014117704675 0.5798694308062546 -0.2874300589740559 0.4529306675940293 -0.6985199975153119 0.09001154223711687 -0.5751665039352235 -0.3325441217736476 0.1007396902616088 -0.325905958369225 0.2183296135478061 0.4944904401513736 -0.1494448819802588 -0.7024893524569515 0.7293128965927881 0.1274182940667149 0.1987688313687753 0.5233623889732626 -0.07562456993103464 -0.01963392781379983 0.5739064599316526 0.4711420728829243 -0.3700084114681708 -0.3352633012561943 0.2979305308382268 0.1461453178326113 0.7595568506811877 -0.2220960143995505 -0.3291000048052105 -0.4067985820936671 0.1428270252282169 0.702965956175387 -0.1195406156747503 1.427318865134372 -0.334611413878146 0.1968795235369026 -0.3810323853185821 -0.03184417883107143 -0.2252536803409415 0.1189926690849178 -0.1474039014483163 0.3740067714224448 -0.1454831748260732 -0.641221427483177 0.8412052477618318 -0.285362776323855 0.222227347293895 -0.5910995358308456 0.04347926094537848 -0.2132315088717752 -0.1328388653478218 0.3344944283184646 -0.2455032383100871 -0.8268085710426963 -0.3282515035405161 0.8494698940151723 0.1269066575711342 -0.3039817107495243 0.286772289159697 0.3050202411916006 -0.4660932704257102 -0.02663068469373188 0.5272518527857141 -0.06298619148702064 0.06415537680308576 -0.1704169040603584 -0.05719927214964268 -0.2129895232927275 0.5154789500111473 0.2860997263216726 0.1983107634426866 -0.162998925858115 0.5246200883856024 -1.071131485027048 -0.2977551694249345 -0.2932921375495947 -0.4894825835411462 0.1927327259877684 -0.1810657910432127 -0.5713557858206688 -0.05378340494150586 
-1.095897284879019 0.1638950460567608 -0.1428262131992612 1.405877004526203 0.3415733788284366 -0.491769826106731 -0.5602903015355544 -0.1480560058841047 0.1464555777102395 -0.03904880715464371 0.6626563115105474 0.7340342302329801 -0.24205913528607 0.05681863525238388 -0.1237933085616892 -0.1825985882091648 0.1028352031547367 -0.1841608391296866 -0.09662997519875176 0.2341641429618163 0.6420978133912987 -0.4070100009480568 0.5251315000504551 -0.6642806801108752 -0.06605934423109702 -0.3893494076445108 -0.0655133212796227 0.07933285169445325 -0.2152619006338509 0.1959468536603824 0.5178512037833503 -0.4997786077013921 -0.4872505724745209 0.5824842407745987 -0.07729926999394339 0.2948774953922029 0.5494569923916052 0.001774697558473503 0.1804510959281655 0.2088608063687156 1.055049189631255 -0.1335146370578181 -0.2576746370984317 0.06703317550090421 0.07833993728190475 0.7715032440721424 -0.5887000509359344 -0.3599471997355356 -0.7929495485427899 -0.1154288386541362 1.210237361828411 -0.0444584020957187 1.715508801821399 -0.2902774986885769 0.352740315377649 -0.4080258479944472 0.5094817419360002 -0.4090830291164692 -0.228873845672753 -0.405520912212914 0.2186355432216225 -0.435738329885149 -0.405084617831164 0.6217560610621112 -0.2825669427569225 0.5424083565409539 -0.2336704139741574 0.1236214457322187 -0.2240558052872673 -0.01060386023717731 0.316623755038951 -0.1972372410380203 -0.6968080942161569 -0.7316329974862786 1.043715117468345 0.4737851147070279 -0.1978807084897984 0.2077141731027775 0.05233474456469863 -0.40024651535047 0.03391526935782364 0.8153687858638629 -0.002464203563798475 0.008314501665419964 -0.06237018591231656 0.1255005440449453 -0.3839445510425145 0.6775381681590574 -0.05407662531792596 -0.0779136509273021 -0.07763291931475275 0.3181138758132887 -1.09301203157563 -0.3489677533154954 -0.4938001041811673 -0.1930076849446193 -0.01277538527386581 0.02781382579518462 -0.6883098456842258 -0.07402758546071087 
-0.3919290297704967 -0.2324820856430179 0.3771577789923212 -0.2015598985733029 -0.5200888361582009 0.05905078199909405 0.01978649311854449 -0.04130330560228761 -0.4862189565977023 0.06625782079611658 -0.2026267574551448 0.3359859904617611 -0.07076813904896273 0.2763941928165675 -0.1956336275593289 0.06097849860449405 -0.01257181622150935 0.01766099819375119 -0.01872097953171571 -0.0157243476613148 0.2830645662725806 0.1228575435126919 -0.3818270745432743 0.3354153981516561 -0.1807529727931131 0.06996384819456453 0.1026018989309449 0.1774399524924123 0.2355207793180772 0.1250074463763961 -0.07969086664366626 -0.2938952252845396 0.2295533995791974 0.05019358937260955 -0.2445804965459359 0.4280753937072004 0.07512355292412125 -0.5661520250232114 -0.295857896669873 -0.08203082491768304 -0.2140388281028004 0.8288347619483096 -0.5040180197971561 -0.05416062072634074 0.249734125990056 0.001778766636259831 0.5233710626178373 0.4124366058322413 0.3098921611391093 0.1113521495707277 0.4160917466419105 -0.04826149278796935 -0.2083523669367353 -0.1296123186825704 -0.5534629498319774 -0.03825947435600029 -0.05920653998410453 -0.1411760758557948 0.1279807339181065 0.006532901348580517 0.4470302570063369 -0.08288495755253054 -0.3625682123172783 -0.1545301417671741 0.3330981360724058 -0.1382202054292806 0.1114086917852525 -0.5843239777326592 -0.07438141910084232 -0.1616420560631111 -0.009161615304585596 -0.1053175015491765 -0.02965676323761233 -0.156043505271602 0.3933956128932012 0.3054573657901094 -0.2681068722731172 -0.01080369200676911 -0.528971836468849 -0.2151243341553853 -0.3550982736147827 0.2846410359812657 -0.4495859258697638 -0.1947455910768564 -0.08752411408121921 0.5096311752306347 0.2454355406543505 0.0227078022475127 -0.02224329018431202 -0.1884364700146325 -0.08072310253670094 -0.2813034350283604 -0.03365142215442421 0.07938908837522049 -0.0902424677790675 -0.3279683660513023 0.1168254511753993 -0.1507172708319592 -0.4956847015693911 -0.01013842366259116 
-0.314180964476354 -0.008090144578995191 0.4528273130021312 -0.1555892468053337 -0.3273126075582095 -0.09100524287361597 0.03631677878432171 -0.05081920357974951 0.1348137851035139 -0.01550693887963513 -0.1878693728226188 0.3231558331443034 0.06953914257464307 0.3378850839061921 0.04371796773043035 0.001570082041499426 -0.06825356900731505 0.1382914825848343 -0.03506251727440532 -0.3625253720859962 0.001016167413440301 0.1335009537403629 -0.1672476454339634 0.3841990023336747 -0.1298383170610802 -0.0415668677208845 0.01876435666651262 0.03612509670119654 0.1834473424039986 0.1306671637715131 -0.2347808114676283 -0.3045028769071638 0.2071201498318029 0.03308883841026723 -0.3481853793976914 0.3846057027784486 0.1389131080618569 -0.541665243251422 -0.3247396234613752 0.001603573785032097 -0.3949447078742108 0.8695535945365634 -0.5793197240830379 0.01568257772229184 0.3352349251848893 0.1461287169541071 0.5362074719370975 -0.05019213349112658 0.2236500635475206 0.08565775133547199 0.3955001432523203 -0.227991824564159 -0.2818054216700348 -0.1840056263730441 -0.4415418056918716 -0.1189947330144615 0.2383277812434494 -0.1498982782296192 0.4059246748109713 -0.03429733471239088 0.3181509957343571 -0.1054350126124965 -0.3029457429270001 -0.3641147360344305 0.498263890078017 -0.1485260897584367 0.1635763233324332 -0.3995729683614144 -0.223007502043276 -0.1479084924408545 0.023300995951362 -0.05777216426631281 -0.1074246213070017 -0.05369701764793352 0.4398937707460877 0.5832233315824036 -0.6047449912635124 -0.1325099804799098 -0.5084982519838757 -0.2878353368759788 -0.3779848786826011 0.2532501059587127 -0.3978771306425979 -0.5626934384822062 -0.1868964829425104 0.7777372583616103 0.1193456586586182 0.1467839253120507 0.2298399365641988 -0.1226722038181955 -0.09880215502026164 -0.429749245569146 -0.1205133291958708 0.4774874208107593 0.08063849453597981 -0.4052401192375367 0.3082538177598833 -0.001364536991341481 -0.347903743239059 -0.2018393829008618 
-0.4192976663537031 0.1364178385450635 0.5078767575545424 -0.202992714161722 0.05200899145788288 -0.2934976038511573 0.238343748734831 -0.1916827556237395 0.1262177507994759 -0.1266781211523592 -0.0540328846102686 0.5663047959565208 0.2473869191044667 0.2236486270556325 0.1792340314520547 0.02001783527005044 0.2439738174976606 0.07417581512897511 0.06015627295050431 -0.1802033543475672 -0.115120385223012 0.1814101271158955 0.1358552113791431 0.1115921995606292 0.06415397938213147 -0.06955421868498805 -0.1419586366294865 -0.1051598803644311 -0.1791782286309998 0.1864992454119271 -0.2460965961410398 -0.1740657906893885 0.09778935962813837 0.08581624061516994 -0.461249059532059 0.181268488912625 0.1291416339385894 -0.662761541149296 -0.1164650435450691 0.1044110948890006 -0.677502761127099 0.6725465194813157 -0.5481994498382574 -0.1432365134966787 0.396928677402329 0.2537924120179456 0.3842706357014248 -0.226030035236543 0.4604866699317137 0.2345084042879229 0.2165622709828958 -0.05935882851561239 -0.1586886919884476 0.03187036294776124 -0.4606237327690129 -0.4169456220834009 0.4156088906059395 -0.04530721329830183 0.3994705602978736 0.166345428861372 0.008462128059382455 0.007684043373004865 -0.1358846535515962 -0.2486901844128093 0.4990948320469648 -0.3571559448392659 0.2651770027716966 0.1062590344876512 -0.2239582458962762 0.09747308711966006 -0.0605789591185674 -0.04951013775514468 0.1734744640276707 -0.01277236915955944 0.4583618226334732 0.1730077413083694 -1.125762953724828 0.01175387490869459 -0.5451422440331034 0.08253895600227824 -0.5254972227092934 0.1436686115046925 -0.511320328411623 -0.6004329296689389 -0.2253211898288256 0.8111468795031819 0.03039857615474896 0.2143159769213605 0.1832186117286792 0.3180847295487096 0.08100461863283033 -0.4354916648648974 -0.09280552286574954 0.6934666167408987 0.1652068534700217 -0.3223536302719262 0.3455200078672059 -0.02551207002366906 -0.4156374177534261 -0.3229460110579826 
-0.5144066996612199 0.5400242443041412 0.4310687647581533 -0.2712757440435966 -0.1495966064551726 -0.2848872416539857 0.5413177564040158 -0.1968186990752334 -0.2558090677317502 -0.2991616461215821 0.05462791335554736 0.1577732284246858 0.1097171325735076 0.05354293205231982 0.1669779999179999 -0.1595665895900884 0.5612584302390635 0.03748105513912978 0.03166186033628565 -0.02519749862746921 -0.04043894331769821 0.2973887077528406 0.295512706915582 -0.08263613897706244 0.04068290439942124 0.01081852192573713 -0.2380474946474674 0.07078136961747088 -0.4001307359688881 -0.1358300262920525 -0.1416126525226075 -0.4504335923816976 0.001816044737764087 0.1154049861714384 -0.5150638621845267 0.3018822904968422 0.2351114276209972 -0.668485991873191 -0.144165317556017 -0.2211110992492434 -0.7663227557171656 0.7096435190043157 -0.7909028781304633 -0.1713349812979452 -0.08930178484737167 0.2529728327062071 0.2998408420594552 -0.1479251393372309 0.3353516859444806 0.613764499424 -0.02492909589518198 -0.2318945260211804 0.2336913529879923 0.1318229992317672 -0.5751157987779074 -0.4802584553209925 0.02267041323574429 0.1941664927767868 0.4760814415556984 -0.05311821577767451 0.1207739708716566 0.413524036688409 -0.03274661128698479 0.2626202590153922 0.7697582793587581 -0.4553729371619949 0.2812851404292306 0.2006012958479873 -0.2045527700769608 0.1424885159555783 -0.4433570953437665 -0.1302641614513671 0.03964908297294405 -0.1872868873072802 0.5146904227578437 -0.4402853892025528 -1.346227332247179 0.1073196237723144 -0.3146983619995333 0.6792755424034275 -0.3786717223633592 -0.2800956557566618 -0.4109013753597657 -0.5982682528989278 -0.3323544224564809 0.6150007211110571 0.1328123801118506 0.1757910427632157 -0.1335246965305423 0.3896362944275381 -0.1802878416222665 -0.4783361087981796 -0.001900568481104706 0.6761810262896438 0.2151229088225659 -0.3749640005443763 0.380006673326489 -0.08526532010278322 -0.3855960535822374 -0.3008094859224878 
-0.297762802627174 0.3881676532567009 0.594375725557162 -0.3881269582792691 0.04847668886991924 -0.3384025486743633 0.5735661904353586 -0.3049506720241903 -0.7717029276540559 -0.4688872642024355 -0.1096818033753661 0.2403865495793585 0.03737083733903795 -0.2198064776151235 -0.03473311289848176 0.03862121180029004 0.6894735539720246 0.2107981089340139 -0.2328066451614789 0.3111823566102467 -0.3630349542925372 -0.04995582537500556 0.3622949931070565 -0.3010702600101854 0.09455443246590509 -0.01753477967585834 0.142464482057384 -0.1729325019793397 -0.5513048983608134 -0.3612633014306715 0.3781737376093441 -0.8326499581291843 -0.05346286719583604 0.3040209291514984 -0.6020999245536837 0.225370399211406 0.1458610594282028 -0.2815875282874669 -0.1683983910509347 -0.2493706488748661 -0.8432762970358634 0.271489813416974 -0.9332909005923996 0.001560181479203196 -0.6745044950934403 0.02415961911728713 0.5737353456876226 0.1557318592623652 0.8161156935311538 0.5207845543453183 0.193640746473392 0.06458266140931808 0.5180886508207033 0.3171390145673303 -0.4433972931167963 -0.7153939043154193 -0.3618048983713851 0.6523661498212693 0.301513881254967 -0.2585859735458567 0.604111486446114 0.2637287788839989 0.2220190574978816 0.3366675879508337 0.3506694602967049 -0.641607155031682 0.4925006038322121 -0.0009589365606953035 0.1048521632468067 0.04914384474559016 -0.6736795305612074 -0.2604610337146937 -0.1882767621734125 0.2863458032444418 0.1595657146435362 -0.2936635646379224 -1.428661190880199 0.08318958119057153 -0.3869729530116751 0.9571229139399896 -0.3763244817266226 -0.6482784936467916 -0.5346514366069224 -0.5272681125682608 -0.339961944116638 0.24202938091619 0.09881065703751836 0.3818117279833314 -0.0009567407736226551 0.1371015887618704 -0.2045083752899369 -0.58866860463779 -0.03933164642272488 0.5331315821816732 0.08742088831286696 -0.5909229325682478 -0.1913625775835948 -0.06870090562361429 -0.5143617427204201 -0.2060972609694197 
-0.2688619772109315 -0.04286691055978351 0.4196836613759556 -0.5548532815819681 0.1915423950485047 -0.2699257423574445 0.5819098019917959 -0.4094061543829794 -0.7462771174685064 -0.2866856928138575 -0.2354437144223649 0.03450974348422632 0.3652321286190766 -0.003092014823371458 0.006219809449474651 -0.1406673540638512 0.910265431931609 0.3386747277529857 -0.2974144850403819 0.2459464565182057 -0.1861052819989956 -0.4342265538880973 -0.0269083298572942 -0.5633699501514452 0.2350885329655548 0.2366760362154837 0.2356420486010584 -0.3414918033169598 -0.3580712413018351 -0.4112327564345859 0.8855642553132801 -0.8682318491185856 0.003159355701996294 0.2180281059289008 -0.6899135494855135 0.2143403982947693 -0.4002040782083041 0.148968799818673 -0.09983768794162928 -0.1401891440143366 -0.708127905679924 0.01558730256300564 -0.7841708256863211 -0.1290257477844018 -0.6441365057009824 -0.1076279016073719 0.9687411321341198 0.2307000605072096 0.9911131366895836 0.4132748989674275 0.5158495859978162 -0.01631718691987146 0.6123459013878433 0.1155185905608482 -0.272932979428281 -0.7708746204913621 -0.2830258717770024 1.060835702659338 0.2590273750000743 -0.6997200551133741 0.5606659419140144 0.3468055705963988 0.2967776028022092 -0.2045835238280287 0.6184442281980658 -0.5926607726067279 0.6497135732726267 -0.3870629365552589 0.07178515512903007 0.233833586287528 -0.4584210825422848 -0.1477398652213565 -0.07388848969321921 0.3510038949114874 0.01489209628072987 0.508669095046741 -1.470255914041937 -0.01728689137706616 -0.4672790708603257 0.8238124183099323 0.2123923369266167 -0.8489457977084038 -0.4904901849109254 -0.7245398930859841 -0.552551838510815 0.2163881044844916 -0.09010152621854969 0.5928145475061836 0.3475355732520989 0.08477710090801829 0.02139607370340879 -0.7214618777847922 -0.08008904533134426 0.3289442321063626 0.1867977969658336 -0.6221829191506952 -0.2186643980614468 -0.146877162552494 -0.2388321336518385 0.005960832315968086 
-0.4285013507126948 -0.01332883757158842 0.5646020688943674 -0.417472831887077 0.4750900538642306 -0.08675443708186761 0.5872021915647945 -0.1580158701628355 -0.04643463621692039 -0.2313270449167981 -0.3371993797836398 0.5543716461923985 0.09175171958345633 0.1343242209809122 0.1282478276219657 -0.08771031216723016 0.4832257545333895 0.1689189518152715 0.3856857771282328 0.0996297923505465 -0.2486474207936218 -0.4983612156995642 -0.1622981613572854 -0.3143506434788533 0.1105471808744171 0.09227245853232276 0.4316120715166176 -0.4463250236484578 0.1760601818701085 0.0838334923836114 1.230042766360355 -0.8005561726295718 0.04873706280473276 0.5021390280268569 -0.7501423379925403 0.506500845819696 -0.4498651326231834 0.3570109961786152 0.2750302891017898 0.02990163062867771 -0.7442998425716152 0.2214387709335004 -0.2519649319481778 -0.07318735179983263 -0.7332276510682219 0.02894380864030899 1.319821352198282 0.06649444725819506 0.7790628464460395 0.2756671865170986 0.2399785856030896 -0.2534941324592527 0.5491083561675999 -0.2579268867011933 -0.1438493473453068 -0.7695962678133087 0.1292925438983481 0.254319710157782 0.0861831601724137 -0.6733729957876051 0.2517964382995261 0.04614701226508887 0.015758870679671 -0.63223111957131 0.8355414505203923 -0.1792841342934933 0.7753677198405834 -0.06815611050850109 -0.2306291454485186 0.06145447696852358 0.04340477787034683 -0.09103420883060277 -0.2706012315452671 0.3685423730089123 -0.004845911876129754 1.308810577342054 -1.65064185709814 -0.1174522691251632 -0.3330468668306276 0.2098680557747312 0.9779709719979108 -0.5173944165849739 -0.3891126187625971 -0.7466377791294286 -0.7276620314044635 -0.1071774520001848 -0.3952376291243009 0.8328472686345881 0.3361385051854123 0.1087225910051329 -0.08988175379685134 -1.059735624211322 0.04538105100346121 -0.106412017154227 0.2578797275834167 -0.8914893503011795 0.04880912656093287 0.0541495467374514 -0.5305603879096079 0.02825892446084729 
-0.457662801088731 0.0937359584381605 0.2188247486587435 -0.01385989617351943 0.4752511963023323 0.05491944230432674 0.8345997383095085 -0.1348150375780601 0.2592138390550373 -0.08048481433343034 -0.3744413782168723 1.037924715835848 -0.2308651987669973 0.4652597116025534 -0.1430865124358943 0.02469757371752158 0.2452372079983404 -0.4403499362220724 0.6766033211108267 -0.1867464649910371 -0.1134953933984645 -0.4355554134231838 -0.1129954876981532 -0.03189666665672672 -0.02248349794589967 0.3023185266272445 0.4264310168771843 -0.1396511133136481 0.5549175854183379 0.1702739460115616 1.284583371830551 -0.6177886722150784 0.1085290038346385 0.551057178845809 -0.2858046181796788 0.3574665250258771 -0.4249585914811026 0.1785635111533898 0.09830564736052752 -0.06756131747544136 -0.2872752708341999 0.2139555108899524 -0.2873044596259178 0.4456042430019873 -0.2353741878811746 0.09497241170624632 1.041343193969804 0.002133965781900433 0.02962035021237263 0.276268501480541 -0.1330433958108781 0.147338824662945 0.7911116631854989 0.1110609443590598 -0.2525101940259591 -0.743226582228447 0.5727327340767101 -0.7183974153659266 0.07950644892065795 -0.3278308893189824 0.2210624583498276 0.1983590336211643 -0.06298542487086162 -0.09782575908722517 0.7708452920118403 0.1261689917512185 0.7724155561119808 0.2351857492610366 -0.4969466736068567 -0.1400021771926566 0.3248722331572362 -0.07185779084106003 -0.6451489178024407 0.7073279345099387 0.1449387079656478 1.238165840485131 -1.669954400963495 -0.1224732956262173 0.01148582822943322 0.01462841120173943 1.582271439086018 -0.3192372247713339 -0.2840880969735575 -0.6752015170043505 -0.5257407503112238 -0.06053999166158112 -0.4743576282646284 0.6064862265009201 -0.08309998017588129 0.3164458785452099 0.2038691394002609 -1.094789757984638 0.4393433553837282 0.0007310983297160998 0.1561949407899478 -0.9357063099091609 0.3557490262998599 0.2848447222932077 -0.7013600672429766 0.101031330225313 
-0.1175854159633258 -0.02753776952917792 -0.3265742528475618 0.4398343914095281 0.2560425838993294 0.2214625418460916 0.9842090408226807 0.01088135690500271 0.6903082289781151 0.3741052512273442 -0.407811863637862 1.386505431873468 -0.1491642808334631 0.3818874119658638 -0.242975959657671 -0.1697778550038797 0.06016974539682431 -0.3086948635081887 -0.2390131931431683 -0.4186201660909545 -0.0005993736376204452 -0.4363004415414835 -0.3950857045612708 0.3974068448451222 0.1634104596284535 0.1501176402486666 0.5610697608034434 0.304850175093877 0.9347823731586798 0.3454497338268623 1.019146909951262 -1.170236518517809 -0.1259698248829677 0.654068058088441 -0.3110322949998249 0.3777128050670214 -0.5967134320994792 -0.1584772716314176 0.08321546357712037 -0.2245769262364131 -0.5013336774498881 0.2297476674471733 -0.5072407327960137 1.184904603706868 -0.1346816197824189 0.3938665659473245 0.6974605675183754 -0.03856734315047502 0.2715595404282921 0.7743966836393881 -0.8142212090386483 -0.1652184269472186 0.3494625913732381 0.1196471413656095 -0.2975799068808878 -0.7016110276018387 0.8732467273454677 -0.6998212831085809 0.05754796391340275 -0.07567597152997181 0.4476664716033483 0.4512135658923754 -0.09033547138560685 0.57401876617035 0.8014971964098955 0.2932627690407469 0.6257072335416664 0.2424492169682495 -0.5006241049509048 -0.1255752089219784 0.3251691394573075 -0.02656707659933769 -0.5834834082684521 0.6100120094528578 0.1057615750469856 0.752858056396591 -1.691999025604278 -0.1058996095726653 0.06254200848661802 0.4406388841235078 1.092144444359101 -0.03482353270087064 -0.472313792538339 -0.7729541135790959 -0.5210382484932817 -0.1020682000311234 -0.6545766100817415 0.5890710383875704 -0.1965365066012847 0.4633418617135959 0.2937559135810876 -1.082169895343057 0.3833281904303228 0.4273762303075431 0.1454802264549714 -1.057644149104357 -0.2627784140648802 0.1129199612075226 -0.2017966533139211 0.1160576704803972 
0.2415631761632973 0.03666727142123571 -0.2385589382350894 0.3902925761294488 -0.1377676115874549 -0.2400545746824856 0.9208729799217386 -0.007841404811186174 1.366012708401362 0.3747775777830997 -0.588010516626434 0.6845019400078409 0.1053952885349568 0.4264333990785001 0.273710648504038 -0.05047689524354794 0.02056741106628868 -0.1588658354400132 -0.4883489053814744 -0.1562481928465884 0.477207838120644 -0.13419789444105 -0.5555559889088636 0.2607287702662514 0.2736573627300704 -0.026465289972127 0.5892674921374476 -0.09201968060912867 0.6860488047868171 0.01896021283455304 0.7169899723130296 -1.727911113839705 0.303791585903327 0.6497442681142358 -0.3324468926974291 0.3518148684418386 -0.3453439223409287 -0.001642788553827065 -0.002196577861568194 -0.3373162669063917 -0.09906179068809913 0.2995367876372007 -0.4181605065092921 1.146066074728844 -0.02617746272914363 0.5033156293459267 0.2215289859995517 0.02990506658588453 0.02196686219452851 0.7775374085366263 -0.2896524639936782 -0.6130228971535158 0.2909043169801254 0.5814881728638892 -0.3436304291775571 -0.6326066698700022 1.70083455294033 0.1750716940528877 -0.005580789534368451 0.1766831448982311 0.5609780560931845 0.3341770846748166 -0.1300688413965741 0.2005950464403968 0.9963955648373759 0.1862864510948032 0.5111648290357272 0.37788349070504 -0.3201669184992308 -0.1084134932985211 -0.1388787233325308 0.03074801574599307 -0.6469407286606984 0.5057873467677232 -0.03763016151750341 0.131407725778033 -1.386072189461867 -0.2113069291026314 -0.05541068055636384 1.264780551633055 0.4437372609459177 -0.03439541312828698 -0.5354877261717711 -0.4984376079264818 -0.4395587061715935 -0.01432236358755625 -0.9147367459830764 0.8948841136201234 -0.5065677296454505 0.06986477515755639 0.1295830709373503 -0.8844985552894149 0.374901073821755 0.6863332406779745 0.2087422009873617 -0.9400479042773302 -0.2255962199135498 -0.06658134619418679 0.1351268004772372 0.04293159614736395 
0.3815932187828167 -0.2239112874291576 0.02934466196515219 0.171271510834154 0.3000507048224521 -1.141161138877929 0.6598316447829033 -0.1368139988825902 1.391485125519015 0.06427202643416197 -0.6646124523235118 0.0266588840680087 0.157757422336843 0.5566235014405783 0.4167809934712605 0.2598954999087854 0.2100695306343076 0.07624108761697176 -0.2293151432976965 -0.129820259895298 1.316342765429212 0.4393832864853488 -0.6682779194586232 -0.09419460547243604 0.2417146761387612 -0.1195804210759843 0.6154882132851217 -0.2190147863049542 0.1201761633152729 -0.1868552952075314 0.02479068240278708 -1.347875659051096 0.4035412930033492 0.461208272428504 -0.2426449021003646 0.253958702946028 -0.1287489518158657 0.1872321560561512 -0.2830265578684694 -0.3768090038580141 0.5155760947193103 0.4453541519055043 -0.1046622519257892 0.8076602881909769 -0.1615005771068212 -0.04721615718427328 -0.08184443489395572 -0.1368821554372373 -0.565015453470862 0.7732124117191116 0.2047265257394598 -0.3191257630440086 -0.2484098369876921 0.9588198480101364 -0.4912071672325753 -0.3977541105326581 2.616768979333586 0.5944153813525783 -0.124365839166194 0.3520954498758226 0.5160821655867415 0.4728793135728566 -0.09417832035157804 0.09616838420241974 0.8721809267262427 -0.0937469325089758 0.103696937089136 0.2039872302123822 -0.4693917514531473 -0.08292650733921111 -0.01903796131848453 0.01819013704514295 -0.8936674761973064 0.5737083451200539 0.1787388542038205 0.2579670648892655 -1.536038796758653 0.02317061326154243 0.2957331813438949 1.147978800135117 0.3307918134013182 0.01554329633260349 -0.7099468245223672 -0.1113994644324182 -0.3702442302249274 0.08144954665112061 -1.16715046800093 1.051983341767971 -0.01131397160805372 0.02350722899584885 0.2465571296412179 -0.6842266331184577 0.2036408651873301 0.8885099519765816 -0.008889874676562442 -0.822195491552539 -0.2249315460355368 -0.3858379375575519 -0.2681598162669681 -0.04087938231725254 
-0.03457812248441192 -0.09036080130299175 -0.06452738044996564 -0.01472263605199874 0.2630355398704574 -1.238278981654634 0.5649842639058298 -0.3372489762476905 0.8244893518895515 -0.1497225145116751 -0.8596251686419694 -0.1600431580528072 -0.05952597027062381 0.8858413063504971 0.2334167134891778 0.1589245307139081 0.3350979507951805 0.3820451173644473 -0.1488236265277822 -0.2759324690618872 1.017918916191153 0.7434436063793689 0.08858574032399794 -0.38493371873292 0.3716903816657759 -0.127713023096337 0.2993614221792149 -0.4326295638719811 -0.1716609026176486 -0.1130881545227935 -0.4307773391241156 -1.169627859705034 0.4673550899759795 0.5651516633632261 -0.05880216375737669 0.3736894813520985 -0.1156975998689517 0.5919746092081084 -0.543870694803486 -0.2888962735104825 0.9573950243618178 0.8132619696461447 0.308598379817672 0.4918314427755369 -0.3982661503505288 0.175879071270596 0.003403642628914733 -0.3979310881159967 -1.422518504961457 0.5208006145917679 0.2000306466073147 0.3083765793835129 -0.5410992087106953 0.6709910287240201 -0.9404576902228631 -0.1848926861441509 2.808144480401497 0.1172444692022301 -0.2113082711640145 0.3012121249950147 0.1453667509950666 0.7541059876355743 -0.08217069838631065 0.02067744741817702 0.4464229341270973 -0.06833216656248954 -0.3437224651182209 -0.305258254530329 -0.3804781951067882 0.1867313438571076 0.7136400587170684 -0.02117330809439507 -1.172585082201389 0.2472148608649708 0.584350006013286 0.3098782220419123 -1.591329576009963 0.3092264569791902 0.5025448191338179 0.7775804277685658 -0.03147357116216225 -0.1657077185108672 -0.591897064612136 -0.04526462391472962 -0.2505577679508451 0.2003102991953442 -1.193844693010485 0.5373416700913654 -0.1521542340792486 -0.1275889546106106 0.3947021361398356 -0.6256321343439437 0.2647340135038109 0.5329086687915023 0.04377617309496436 -0.4934617172194214 -0.3312555098493283 -0.5852360102782331 -0.6145829957170708 -0.07551480117554721 
-0.4616447458857338 -0.03677132573049342 -0.214041078366811 -0.06728872497468033 0.5431119960845969 -0.9586839611527296 0.619752457317195 -0.3813008054259584 0.5335537596725617 -0.2921447877526511 -1.160814606264495 -0.04220284542258819 -0.4168980987212115 0.2833860520515394 0.05893915093050645 0.1767490179070527 0.04850583809180888 0.7340132871070661 -0.3335955995136559 -0.3942780808269839 0.6230537518189163 0.6607899969143287 0.2859958371904354 -0.2816594496586947 -0.1872930917226244 -0.2164105616169278 0.01311170257223339 -0.7797704863664502 0.01480957637711192 -0.005321725645567834 -0.4803417280212359 -0.906293645286942 -0.01764707845986239 0.8197036953970352 -0.03145983289833085 0.6086757812221839 -0.3594349244965794 0.7152453316168047 -1.158461780620491 -0.1685537088750844 0.8791398943249867 0.8496474307999458 -0.01977014938453661 0.4344551941761652 -0.6748817108956636 0.8640157790774263 0.297698877912462 -0.2795988873353466 -1.240673267850273 0.08669786289519027 -0.04519466838144712 0.5473334411936852 0.1002836076775325 0.1505646610531545 -0.778180557805862 0.3141399932410232 1.714476848168397 -0.5024381362345496 -0.4066495867499589 -0.04471582334194706 0.005387843234436929 0.7984047216146377 -0.221451567320534 -0.2483353366636252 0.6107552736686277 -0.2369190190966015 0.09819409938980139 -0.7617701712599935 -0.1825295142771802 0.3390314661918427 0.722821660842214 -0.0708858899107225 -1.169251296716944 -0.1788667590512626 1.507354638181278 0.4489984241806572 -1.883169609974844 0.6086840159886215 -0.03902237005676453 0.5127917877170047 -1.04514277670072 -0.05237410470249721 -0.5425945713565457 -0.3886758267185377 -0.05250463914042128 0.1417116973163461 -0.6501330982486782 -0.1318231483234927 -0.1470765767660029 -0.2738551701968126 0.1526795554175942 -0.2811939605650415 -0.0396789074579887 0.0218636775643904 -0.1208151644594326 -0.1952961994664638 -0.5449864549756143 -0.5441980566185755 -0.6712600897165151 -0.04197867538273946 
-0.5294974365808877 0.005352651123244394 -0.4659414595568048 0.4265397205202255 0.6586149152094365 -0.4136611729211849 0.6293034054459276 -0.7306927707327578 1.489564089773584 -0.6072551557803403 -1.346319902734365 0.08227190861551383 -0.7346621913521292 -0.1800979105125493 0.1352204943328053 -0.08322201922725864 -0.6924667958045473 0.3654576381911578 0.2252008590662585 -0.6833397447372778 0.02005664021170112 0.2551920844846431 -0.02610293715029285 -0.3460105566528557 -0.1881105794930359 -0.1266363493927729 0.539368458428558 -0.6702616288505272 -0.1411190807537386 0.08593069639743578 -0.06316391540002496 -1.101157138878627 -0.1914186353641733 0.817149448010264 0.1314410740785313 0.7831651219747671 -0.6350769616285805 0.4975007377820179 -0.925286908040998 0.2052855966739155 0.179978506352451 0.5618158054817541 -0.1861629848907113 -0.2544769977313046 -0.3216471755141926 0.6597291858736847 0.9531357050395024 0.327422786939508 0.1718475390877123 -0.3867777492933377 -1.243567084880317 0.6376143222717218 0.2232841307993283 -0.04580637141975406 -0.353937766511672 0.8216276817158874 0.7694389272031369 -0.721811450737901 -0.5102546162443988 -0.2708646852186035 -0.7354859449713739 0.09205624250380685 -0.4284887276140483 -0.2964554688799962 0.4948219192576295 0.1196615872817608 1.082972214044452 -0.4475238094159826 0.03585533277997469 0.2353444306519505 0.2203342607321556 -0.03600132491750499 -0.9218270285765439 -0.2254849874602949 1.283186837745268 0.2180500051689574 -2.082093481729635 0.544182142672883 -0.1421286295303869 -0.05753262617152044 -2.171461419954577 0.4924621601175994 -0.5112526803782902 -0.478500634564105 -0.3133485689816776 0.3449627105014981 0.1592473220565914 -0.3819190898645277 -0.08811339518038157 0.0545912645330624 -0.1650791262258564 -0.2574998265053609 -0.2048982715930746 -0.3917169507664894 -0.4383122987348445 -0.5921997802699424 -0.50207678553725 -0.3056912102202509 -0.2086526430097109 -0.01688790619838893 
-0.2522194593756686 -0.2924324349433077 -0.2601283597930787 0.3171988779169824 0.2323248176921303 -0.09205464435564954 0.7254295267130357 -0.7986793972511251 2.513445951948347 -0.2806470740046757 -1.441698831130249 0.464729754204605 -0.6571482865928666 -0.2109444362021997 0.2142967534730377 -0.5012178313167115 -0.7385898133947465 -0.3021281969689572 0.04687108490312273 0.01786330598603858 0.03755545499962082 0.1908137604020993 0.2957720811078727 0.07460893944621293 0.1374884213963607 -0.256218958180806 0.8291103585573404 -0.5695980387249069 -0.05547694167891917 -0.02137768456756321 0.2692920730928412 -0.5056100280615909 0.06906883591578784 1.288646030426099 -0.05668571948163365 0.2527655544080973 -0.898550257029947 0.3386735636368209 -0.5214819458956419 0.252399840123531 0.1578485297528016 0.1527608584744489 -0.6332727858495932 -0.6209038920773968 0.3797269965600596 0.1565282472518952 0.6702712145237135 0.633177038669086 -0.04157801067922921 -0.3132431202949814 -1.337856780626141 0.8701459057953197 0.3728351546040954 0.4079305842767077 0.4738666368544522 1.255645651033118 1.255634944226367 -0.473058048392567 -0.64185436475341 -0.3943737156919148 -0.5394796702062922 -0.8432052604838141 -0.5882440165552155 -0.267863995775485 0.2870599189761527 -0.08926660810165452 1.154476737732324 0.4003449348924253 0.2551070588645552 -0.1969866457644756 -0.2994698148045499 -0.0705246214471037 -0.5419577408882176 -0.2563895424568352 0.5587372187219817 -0.2405501349516713 -1.895791596310353 0.188793572058554 0.05972784851860705 -0.1520535080207775 -2.279348535858873 0.4231067439580872 -0.5226607471368055 -0.6169273977240807 -0.405623177868864 0.07746181037944352 0.2069602652017402 -0.3287736154715918 -0.07493273432738899 -0.5279379480749707 -0.4373011121630013 -0.2238606379738344 -0.4821068842687301 -0.1137508317057105 -0.1741687810381483 -0.845002858534178 -0.9117527365240166 0.04502251233537331 0.3686349147385806 -0.1898970945852601 
0.07798363187593203 0.2863782601956896 -0.3080354338531798 -0.05815080827557683 -0.3446894104750487 -0.3854549530825502 0.3970210995973161 -0.3152129260027601 2.443046453479718 -0.2039316947151154 -0.8836611547428599 0.2103564539678605 -0.6137473510964775 0.2704804612696879 0.4015756840407006 -0.8287130978590663 -0.2677333274509111 -0.00564927040501484 0.3951384715119574 0.4284316025247781 0.1736552902186648 0.4615404443831922 -0.2080156458707261 0.7850171928276266 0.2191185233577554 -0.6891622129262396 0.0634941108274177 -0.4747917958085961 0.5396552412718734 0.2476925243740958 0.1396819274950617 -0.9296903734898244 0.5680276419151418 1.14807245800983 -0.2961020764416112 -0.1546732382355078 -0.5282598788700634 0.1406758128186568 -0.3929643404656867 0.2111063867328604 -0.145182039709917 -0.2232061326729503 0.03450721631929361 0.4219135622554144 0.4826301182177787 0.3472211958261221 0.08576139151997364 0.6293396388421133 -0.4765400989761173 0.5766394515543675 -2.114537595226162 0.186191297317616 0.3727915898787661 0.5274993624928901 0.6894316850040705 1.526984657399641 -0.3839140979288299 0.517258495756335 -0.7694979932741 -0.7397307825354728 -0.5876207075835342 -1.331298473892499 -0.6752667356922318 -0.8176332563571067 0.1379771603113974 -0.6161899597855522 0.3176376528630142 0.07769019163164223 0.5479227801375224 -0.2770758074604324 -1.264734348433115 -0.002143897099046966 -0.9783449671492681 0.5084280261964502 0.004812083226276968 0.6490320432849346 -1.440234781757555 -0.06579122852749676 0.3041935262435886 -0.1377175381256204 -1.632809413964677 1.000361350176962 -0.4090321738086876 -0.9581951948607585 -0.2013060350110229 -0.236994482089472 0.4047320986392387 -0.08510316956890365 0.4906623295954345 -0.4477365950302044 -0.7402562182314917 -0.2863330482525643 -0.5852900213279757 -0.8421526128682199 0.3833377056418077 -0.6911232654624242 -0.4759212251015486 0.2769223822473368 0.5621139457469198 -0.2046531516130515 
0.2376765300445651 0.0415017216878562 -0.151310121194047 -0.8179661749457751 -0.1422266568952111 -0.238342801567053 0.04981652997613513 -0.06629913152471069 1.949101732464494 -0.3335912513817409 -0.2757672599657898 -0.05927631323001898 -0.07566311813086589 -0.4855344566034602 0.8200704374449398 -0.8279642817235682 0.4163090939916498 0.5941607772487395 0.1571879730413303 0.09520331652788518 0.5316927804058345 0.2149691803966578 -0.1399779834391424 -0.02700225620829523 0.03726653576152746 -0.7707142429225435 0.5941260321219669 -0.3942628591115075 0.3222471755215487 0.1332528461980024 0.5831004619705701 -1.077072062865689 0.5390223344394967 1.217973933721464 -0.3548265531963786 -0.2639537224945911 -0.1541661820408314 0.1444842877000746 -0.9612474309313771 -0.1429786918017197 -1.172696024319405 -0.3601490645377966 0.5635962832491845 0.8008009080510021 -0.2963615339770251 0.5472435171870803 -0.04065754753328001 0.260810059032843 -0.2645887194876841 0.9350373441811627 -1.888030136556733 -0.01666828976125937 -0.4425434617650167 0.4536652759365803 0.3676758515290784 1.105773154404221 -1.341393286734921 0.6911770297987448 -0.8143061710628944 -0.9169491769909759 0.0339644234726959 -1.33858535784829 -0.4269019639318553 -0.08496312328584875 0.6172241523506836 -0.0780809142342867 0.348386882244312 -0.5249934701177058 0.6010024248811202 -0.5101447012114865 -1.417283855385372 -0.1516323053217371 -1.293016453502472 1.052709257476488 -0.08834089530177854 0.4114160819880521 -1.45675447539861 -0.2664942089746988 0.2699580088122717 -0.502719923896776 -1.030089226511657 1.065090279263544 -0.5022599138254377 -0.9271821067700911 -0.04148945919610648 -0.2285796818871946 1.015805103610676 0.1719854937850585 -0.1255504409845948 0.07369374647681781 -0.6177521224628455 -0.4896721376386167 -0.4939555146801212 -0.5722096835189804 0.4969124640175185 -0.6313606596818974 0.2902536232751722 0.0245221059470536 0.1174021183007157 -0.124514606029405 
0.2745017799191932 0.08543833673778259 0.0791547361091587 -0.4455499372522954 -0.4172129153663005 -0.2261206728177838 -1.009313405820836 -0.03860695242972429 1.296821504723843 0.5299073176478344 0.1513886578444804 -0.2780488602220806 0.1260261756319061 -0.633601617133593 0.688121775491931 -0.4197280653349139 0.6598388693773852 0.7878553741251185 -0.3204347642144748 -0.3262653156264452 0.3760147680156219 0.2390395168455765 0.3352986167745222 0.312674834756654 0.1378287466467808 -0.5072022488006613 1.283599255835566 0.044982919157127 -0.03183161273093865 0.2098750223211651 0.6841968258493606 -0.6476456550291491 0.3630965775194435 1.368991247818081 -0.004504164124909199 -0.1924009086866606 0.1154457096067388 -0.1323380247338585 -0.5299262744049427 -0.5230477791797442 -0.6053859069926336 -0.3466978828862624 0.5446489009339635 0.5158828452321095 -0.802276313593503 0.6214691969866909 0.1786286831908998 -0.246526988855509 -0.547882905997164 1.017529261742603 -0.3682212618850539 -0.06066363800538683 -0.7570187227188231 -0.1356406528054802 0.2477816140310865 0.2882235632305894 -1.47629206067249 0.5093222314983213 -0.7100004022041526 -0.7641272464187406 0.29946681336443 -0.2918258241358261 -0.2233175926047633 0.4904308571748026 -0.1354695459543035 0.5693792420610527 1.026280492278688 -0.07434956062213163 0.1046586977171455 -0.3161652153089752 -1.559765044920177 -0.1488951110026858 -1.213067658514186 0.5621128256377478 0.2053998965505729 -0.4640472172340652 -1.335005358783034 0.01269931169473515 0.2275968550457111 -0.4216821157434932 -0.7261151112392543 0.3576072993143914 -0.5836190148348569 -0.9347466340892852 -0.3109772288657215 -0.5342331642471883 1.026535580222898 0.4247357171510061 -0.6867555772218281 0.3050866110530667 -0.5335246289905877 -0.6752718546456724 -0.4734489515122579 -0.2473701015705011 0.4835379420403412 0.1304260317491548 0.6826532296822627 -0.1990956660342287 -0.394795030255833 -0.2112360448984753 
0.3172617354765145 0.07700381202574236 -0.06258332250671921 -0.1826465519362129 -0.1227560050784868 -0.3405532384971767 -1.400332589005606 0.1162175422772521 0.8844001522499699 0.749357600147558 0.2823529416214017 -0.2930915437339164 0.2974308675595445 -0.1665261596550304 0.7191141975899341 -0.3064667309299216 0.6045112733356247 0.2681551805012394 -0.2046211840566934 -0.6681923994234489 0.3682769930194248 0.4636012620109066 -0.1522513440570309 0.2923806876668018 -0.2015488496051441 -0.1645368603909091 1.442518225428735 -0.278337472722905 -0.1183286941555653 0.7315396454065388 0.3987487826172409 -0.328948571496597 -0.02853135497016487 1.600127126980657 -0.141569353983132 0.1087400084474375 0.1008271915997961 -0.2481855562190552 0.03265328286282009 -0.4668606597533083 0.02429458369976585 -0.1414213129467228 0.9435875445996587 -0.1247867530082773 -0.7579760503019511 0.3747316374094196 0.4148803794285551 -0.2700944641262615 -0.180341239842093 1.165177123078287 1.21104996283915 0.2107329377176885 -0.1868099037895033 -0.7896631125269289 0.4331565442149498 -0.09778276049644603 -0.6750210588776553 0.428434922717234 -0.3781792180763094 -0.7216862930820791 0.3721353785724162 -0.2818513573573226 0.2833247278079775 0.8818067122778778 -0.284372816493973 0.6221594762504926 0.6884574017849737 -0.004356740655734862 -0.1225354076610919 -0.06617966057312714 -1.482107865761056 -0.3234939913375852 -1.278292854784176 -0.5125313460936491 0.1504013863192739 -1.308602487817624 -1.164273499906964 -0.08838060782357252 0.3577776867761754 -0.1567255853661549 -0.09988727253211849 -0.09748856464368312 -0.8197568823029804 -0.7477756161026602 -0.1747674217688562 -0.5467519746804601 0.3815927185524278 0.3682676533306112 -0.8174025800630892 0.03191238856984029 -0.508224967020966 -0.5189997814482292 -0.353624265893247 -0.183691278076204 0.04746973408434218 0.2396615542764189 0.1824503971880366 -0.5405510922661492 -0.4504815609940769 -0.285281287847735 
0.1915222372959636 0.2023908387918495 -0.05153356929950678 -0.256892995365464 -0.4955421832171156 0.2235805395982226 -0.9196330466022414 -0.07315728509261422 0.6559667043604109 0.3435723031498896 0.1538357608199254 -0.1856272381670598 -0.1047134827322534 0.1561036918016536 0.5662529181285068 -0.4188187906233851 -0.009429272638871531 -0.06772358411168523 0.1730017660744601 -0.2482476660159385 -0.1102966278058503 0.6456218966093754 0.1117056356579936 -0.1547552519308162 -0.6352263720588063 -0.2009772589970728 0.8695878750976908 -0.8292601456156986 -0.0007155829094064615 0.4242670309094624 0.8076898653005279 -0.04169774949857168 -0.1567879920432035 1.755472484489835 -0.2443435763714711 0.04596165612534212 0.5640888305385818 -0.1442640260234201 0.1709825882458566 0.01922771448670665 -0.1079673342504021 -0.3556442396716034 0.5600525425133766 -0.1514919039188604 -0.4969994561997489 -0.2142205080000529 0.496278950841927 -0.1951910477244003 -0.4506726962557843 0.8573890825468177 1.55296952911021 0.1241850846068178 0.1420647280986214 -1.024918861212873 0.1201040160175658 -0.6179674905062797 0.2617193672861615 0.8196843287094338 -0.4416146325766871 -0.5273645262802612 0.0691588601372758 -0.3998895025047287 0.5330161580521739 0.5347453984454463 0.4404636238673291 0.7703639194601788 0.04140047313965225 0.07777826140201839 0.1099016867533694 -0.2995193094377699 -1.160985847163975 -0.2595624080534733 -0.7921701910694222 -0.9439633905565923 0.02514689152698532 -1.92299529043029 -1.066336117010278 0.04536638012222648 0.7280043969325957 -0.3212728982611736 -0.2967155231648186 0.1644247788251837 -0.8268240278500225 -0.4339627167141471 0.0474836236228845 -0.3589024672921477 -0.05862632418007902 -0.05827825681653444 -0.592849196310279 0.1970047657158841 -0.3328661748155948 -0.3179278440149038 0.294489495892568 -0.07307502069136031 -0.5104258320010695 -0.2352181504057431 -0.06380213996366409 -0.6176853910497773 -0.5078670438814054 0.1444274538454514 
-0.4091385181034338 -0.1351767262410141 -0.01596262983584167 0.06190508214584091 -0.4198282458114104 -0.009062526760712579 -0.3087374288929997 -0.1775013259520721 0.5287053726509739 -0.02428024540616243 -0.5003477294251653 0.2049579672107864 -0.351010674644776 -0.09024401473839401 0.6933695573014425 -0.463211226073605 -0.2675393110036795 -0.5505284689794628 -0.1358417381402667 0.4120370475155473 0.1747524060455468 0.1401369986307372 0.2653465087462711 -0.5258636319381975 -0.9116364387738186 -0.2364723372835184 0.1620312488819894 -1.109811083833613 0.2637277928117759 -0.4121832716970252 1.072687377929463 -0.263920535471172 -0.1552344368645115 1.264626688898976 -0.6685483096524648 0.1664449710058513 0.6027003053073883 -0.3679248530759343 0.09669825280660857 -0.2017206654578463 0.01576488472851838 -0.6023675065589307 0.1163568099297984 0.1824699220860261 -0.01705887197283693 -0.6766759117237874 0.1475443805365394 -0.2466287775018177 -0.697053228265379 0.1207465974684767 1.455392173030857 0.4506861368599502 -0.1770390947759082 -0.939133544617355 0.1438159335092828 -0.6916155365740932 0.9094211409210216 0.6905652461954598 -0.4202185410884994 -0.3104246848932747 -0.5502461109078214 -0.2401593205064952 -0.0084579515904658 0.07777647116448193 0.9593210799146836 0.4802015371657569 -0.1656952824457276 -0.005185483542786803 0.1811415632487223 -0.2780055361571215 -0.5853746369263788 -0.3444249322028212 -0.3010678225893421 -0.9958616452280391 -0.1402237953778881 -1.714678355678695 -0.9951230538859813 0.1322127670809692 0.8864350016073006 -0.6752702935684926 0.09191697784495188 0.1770826988965472 -0.6402614874569826 -0.2435442851748779 0.04302870407536723 0.01648300633332105 -0.4602181166379203 -0.1040340930750068 -0.7689002664915168 0.7717186857164203 -0.1817164181375053 -0.2265239348113819 0.6208424536253812 0.5556437601148736 -0.9722867295300945 -0.3475416851652592 -0.1718842133015384 -0.1146466846887488 0.1957792514967129 0.1476435277896681 
-0.7638486205620089 -0.5422744158191759 0.1287730961863665 0.1290501538913299 -0.07140640597947279 0.01053636809274164 -0.2782324564971354 -0.2083417184346929 0.5159273555558455 -0.5655771904280931 -0.4732199390187549 0.4048230703704565 -0.6195216790102321 -0.06997036597906209 0.6098474794125137 -0.4382068282825389 -0.08342082251834851 -0.1277966046808524 -0.1766556592209749 0.4816000769971232 0.1593864670271777 -0.01180261576021368 0.2786289374034103 -0.381952858716154 -1.129855286509843 -0.7700362061157785 0.4832499376865693 -1.120642221256038 0.2542935398662753 -0.06310865093738977 0.3337335791305576 0.1536464781874419 -0.1904315375327578 1.248747640640123 -0.4282691812137634 0.3771352724113248 0.1593412354282804 -0.6971174576931912 0.7977135602260262 -0.0537003033157253 0.2529872797474219 -0.7249325770621938 -0.1650488191220688 0.4342503647622308 0.3600418129642242 -0.4457568554910515 -0.1382502122581303 -0.2055908945736674 0.4005599257212344 -0.5164801786846382 1.207086966890784 0.186539874137459 0.5261326312115387 -0.6036102963113134 -0.153601603964876 -0.2945192099339034 0.03000049907434849 0.6599168754440234 -0.0842611537469575 -0.2097794813624723 -0.6038490546011422 -0.1885875175627324 -0.3836112398634258 -0.1558981600471558 0.5481277247446862 -0.4172854631313936 -0.6550049294382527 -0.008844082887768594 0.07354354432500314 -0.363521723996185 -0.4212542545181311 -0.1404458783230489 -0.4465207495902782 -0.4302634851852407 0.2180373593443118 -1.275329263063047 -0.966921116100007 0.5798487740104881 1.008193141037147 -0.7328010459411922 0.02809198340592107 -0.1271397509396526 -0.6005503812840707 -0.2504661369455822 0.2205168541910001 0.1886271315655257 -0.4455307216829217 -0.2567396012712628 -0.8199474883309229 1.127779633499909 -0.1244835253634286 -0.1723826999392048 0.3193706987785057 0.9297853109384538 -1.174337011605524 -0.5772506498646931 0.02239994194144238 0.06527583704967808 0.1720541738128549 0.1376582086197338 
-0.8878062454107789 -0.520327806172589 0.1456978303019185 0.6255497597900769 0.2393943420750726 -0.005318488201093735 -0.2955822174252859 -0.2513202451004459 0.2810217175920365 -0.660058104832131 -0.2027998572716891 0.1453755160093314 -0.7782982662917296 0.1747036941794157 0.3654818013299778 -0.4862248496597101 -0.03070347983655504 0.4934076509153784 -0.08383924232641646 0.2284242559420838 0.2611638000455395 0.07591187204835619 0.357318381260635 -0.2730653094054626 -0.5308788556003785 -1.195151764745092 0.7026869742725363 -0.8186261872663498 0.04853283075285478 0.3278982249598066 -0.3839378422106277 0.07309188797670958 -0.796462739061926 1.207032319071775 0.07693900962196665 0.313342085880947 -0.09980634783683655 -0.6688638363865536 0.9378657971002905 0.1525337002465351 0.3366196618550623 -1.078131818534253 -0.247943912350453 0.5722761644011625 0.2909592330517619 -0.2815392145164731 -0.2589889840676815 -0.4130438990777832 1.169351802217103 -0.6847445404853884 1.062892688359197 -0.4711942678666485 0.9389598645042486 -0.4858204787779823 -0.3001638423672389 -0.1851821630571126 -0.650303123771946 0.6817295730088927 -0.2651546959766493 -0.3253062255444403 -0.3627906705820632 -0.103245345662207 -0.6577671773075087 -0.6966517685985443 -0.1872893768071652 -0.5486096338171961 -0.5622174143386406 0.4995024460172364 0.05912070499120983 -0.301551949948068 -0.08278651086513111 -0.1808439390569047 -0.82415960152446 -0.1513053821576537 0.2275405251946533 -0.8644239681429073 -1.035292489242264 0.7100195529545092 0.774151098460832 -0.7416300671789648 0.448387569452208 0.2444333424207073 -0.1473016429562684 -0.251669871595734 0.1753940765336867 0.2602350286916597 0.02467035543408203 -0.05699715468058913 -1.018330107556344 1.047669806733098 -0.09760808417409809 -0.03981718101378553 -0.3743536202969489 0.7063359516984032 -0.8963915852442694 -0.5919508197554972 0.410981373973054 0.1457884111010481 -0.3967319221963362 0.2740658279457083 
